<?xml version="1.0"?>
<opencv_storage>
<opencv_ml_svm>
  <format>3</format>
  <svmType>C_SVC</svmType>
  <kernel>
    <type>RBF</type>
    <gamma>1.</gamma></kernel>
  <C>1.</C>
  <term_criteria><epsilon>1.0000000000000000e-003</epsilon>
    <iterations>2000</iterations></term_criteria>
  <var_count>324</var_count>
  <class_count>2</class_count>
  <class_labels type_id="opencv-matrix">
    <rows>2</rows>
    <cols>1</cols>
    <dt>i</dt>
    <data>
      -1 1</data></class_labels>
  <sv_total>385</sv_total>
  <support_vectors>
    <_>
      8.54117498e-002 1.12665899e-001 2.46090725e-001 7.21466243e-002
      2.46090725e-001 5.07229529e-002 1.85636699e-001 1.46385118e-001
      6.26043454e-002 6.74719363e-002 1.16105191e-001 2.46090725e-001
      9.97619033e-002 2.46090725e-001 7.90457651e-002 2.39484563e-001
      1.88116878e-001 7.35725090e-002 1.70815155e-001 5.19955307e-002
      1.28203675e-001 1.16808735e-001 2.46090725e-001 2.96289325e-002
      1.44877523e-001 2.17864290e-001 1.36604562e-001 1.76266775e-001
      1.20144702e-001 2.46090725e-001 2.13494599e-001 2.46090725e-001
      1.01712465e-001 1.10799313e-001 2.46090725e-001 1.71555012e-001
      1.06205508e-001 2.97206230e-002 5.05089872e-002 4.92698327e-002
      2.55712360e-001 7.06860498e-002 9.68661979e-002 7.40855187e-002
      1.33572906e-001 1.66734889e-001 1.04044564e-001 1.64181396e-001
      9.82630104e-002 2.55712360e-001 9.97422263e-002 1.56150967e-001
      6.73934072e-002 1.92687705e-001 2.55712360e-001 2.27372289e-001
      1.74926624e-001 1.75167009e-001 2.55712360e-001 1.50071844e-001
      6.84641153e-002 9.21030864e-002 2.55712360e-001 2.55712360e-001
      1.12440929e-001 1.25867084e-001 1.41627476e-001 2.55712360e-001
      1.97742566e-001 1.54935077e-001 8.89930502e-002 2.55712360e-001
      1.60591036e-001 1.49602160e-001 2.13794023e-001 2.81875193e-001
      2.81875193e-001 1.79210186e-001 1.86619624e-001 8.57547149e-002
      1.80176631e-001 7.85453320e-002 1.11292601e-001 4.62482311e-002
      1.80559888e-001 2.81875193e-001 1.27338246e-001 5.48760742e-002
      7.18997270e-002 9.59081277e-002 2.44481146e-001 7.83930719e-002
      1.31012976e-001 1.30166993e-001 2.81875193e-001 1.86577946e-001
      1.11357391e-001 1.00123689e-001 2.39781007e-001 2.03722104e-001
      1.43060267e-001 1.71410870e-002 4.69995216e-002 2.81875193e-001
      1.06536992e-001 4.12207954e-002 6.39268383e-002 1.26579806e-001
      1.72321543e-001 1.98596995e-002 4.72512133e-002 6.36525825e-002
      2.51647204e-001 9.68641713e-002 3.13216746e-002 1.22655213e-001
      1.16920426e-001 1.93509832e-001 7.86082670e-002 2.51647204e-001
      2.51647204e-001 2.51647204e-001 2.26203740e-001 1.71706751e-001
      1.63109675e-001 8.42049122e-002 1.17149532e-001 4.21942770e-002
      4.70188707e-002 1.05619237e-001 2.51647204e-001 2.08877698e-001
      8.51193443e-002 1.15860812e-001 1.08384222e-001 1.80307135e-001
      2.01988202e-002 1.28870010e-001 2.00437412e-001 2.51647204e-001
      2.51647204e-001 2.51647204e-001 2.23227844e-001 1.14027262e-001
      1.85340554e-001 1.09661877e-001 1.52244091e-001 1.71594128e-001
      1.68001145e-001 1.90737352e-001 1.22226574e-001 6.66608587e-002
      1.03114776e-001 1.97176501e-001 4.66722064e-002 9.51004252e-002
      1.18083701e-001 2.35000610e-001 2.27694437e-001 1.18386619e-001
      8.68476182e-002 1.43878594e-001 1.07324302e-001 2.64090672e-002
      7.82258436e-002 9.44101810e-002 1.69674248e-001 1.79320216e-001
      2.35000610e-001 2.35000610e-001 1.61545992e-001 2.35000610e-001
      1.94146931e-001 2.35000610e-001 6.38179556e-002 2.35000610e-001
      1.62604272e-001 1.76148161e-001 2.13964179e-001 2.35000610e-001
      1.88268200e-001 1.61730461e-002 7.29431361e-002 6.62455484e-002
      3.00209016e-001 1.62169412e-001 8.14018697e-002 8.36954787e-002
      1.59944296e-001 1.38169900e-001 5.30273132e-002 2.90916599e-002
      4.28357422e-002 2.95235366e-001 2.36522537e-002 3.14035499e-003
      2.02494208e-002 9.48490724e-002 3.00209016e-001 3.00209016e-001
      3.00209016e-001 6.44183233e-002 3.00209016e-001 1.29666105e-001
      9.25038233e-002 8.42459425e-002 3.00209016e-001 2.35799417e-001
      5.35858423e-002 4.64957915e-002 9.46635902e-002 3.00209016e-001
      4.67801578e-002 0. 3.37102935e-002 1.54701233e-001 3.45917679e-002
      1.06681943e-001 1.07173130e-001 1.48187339e-001 2.31137261e-001
      1.37551680e-001 2.09473044e-001 1.76211312e-001 1.18272074e-001
      7.28540868e-002 7.19502047e-002 4.15922254e-002 1.04004316e-001
      2.31137261e-001 2.09902033e-001 2.31137261e-001 2.31137261e-001
      1.64615393e-001 1.10345647e-001 2.01511949e-001 9.12906453e-002
      9.69116688e-002 2.25935474e-001 1.37431517e-001 2.31137261e-001
      1.29295692e-001 2.03157574e-001 1.72940254e-001 2.31137261e-001
      4.75045815e-002 8.67380351e-002 1.53657988e-001 1.05485104e-001
      2.31137261e-001 2.25648001e-001 2.27798119e-001 1.64895847e-001
      5.94649203e-002 5.07335477e-002 3.89620438e-002 1.30576923e-001
      1.19607314e-001 2.56037682e-001 2.56037682e-001 2.56037682e-001
      2.56037682e-001 2.56037682e-001 2.56037682e-001 4.37088124e-002
      1.55434072e-001 6.69886991e-002 1.07150421e-001 2.26341337e-001
      2.56037682e-001 1.29193634e-001 1.06829688e-001 8.49807709e-002
      6.45692050e-002 7.99310505e-002 8.87479410e-002 1.86642781e-001
      1.37716576e-001 1.83618754e-001 1.96984410e-001 1.71528831e-001
      2.31976092e-001 7.25188702e-002 1.10216506e-001 1.73198119e-001
      1.34021342e-001 8.61252025e-002 2.07392782e-001 2.70741642e-001
      2.70741642e-001 2.70741642e-001 5.71288690e-002 2.70741642e-001
      5.29387258e-002 5.67431636e-002 7.37790316e-002 2.70741642e-001
      2.59970963e-001 4.07032184e-002 4.75739427e-002 7.81011209e-002
      2.70741642e-001 2.77995747e-002 2.16439962e-002 3.22843641e-002
      1.64627329e-001 2.04145536e-001 1.74083143e-001 2.43670702e-001
      5.34277819e-002 2.70741642e-001 1.80323035e-001 1.84264570e-001
      1.17713362e-001 1.93863049e-001 1.17629245e-001 3.43453623e-002
      3.70343700e-002 2.61952840e-002 2.70741642e-001 3.35764140e-002
      7.66457468e-002 4.85520512e-002 1.03023052e-001</_>
    <_>
      1.34367511e-001 9.47807059e-002 2.24279344e-001 2.38821834e-001
      2.39366874e-001 1.94024339e-001 1.33319423e-001 5.55230789e-002
      8.90091732e-002 2.39366874e-001 7.15068057e-002 1.60201043e-001
      2.39366874e-001 2.39366874e-001 1.10426523e-001 1.30147219e-001
      9.41311046e-002 2.29716361e-001 7.53115341e-002 1.01133339e-001
      2.28616506e-001 2.39366874e-001 2.39366874e-001 2.13456735e-001
      1.12456046e-001 8.13617464e-003 6.80060685e-002 2.12892115e-001
      7.86507279e-002 1.82486981e-001 1.55440167e-001 2.39366874e-001
      3.55262868e-002 1.45253837e-002 1.36757279e-002 1.80259153e-001
      8.79632607e-002 1.27958683e-002 4.58426178e-002 1.23325683e-001
      2.29295865e-001 2.54936237e-002 2.27278788e-002 2.91904584e-002
      9.67935100e-002 9.19300690e-002 1.03463061e-001 1.65467709e-001
      1.84312239e-001 2.55569160e-001 1.02573499e-001 1.92203999e-001
      2.67782379e-002 1.21990986e-001 2.55569160e-001 5.25112227e-002
      1.85168773e-001 1.72279790e-001 2.07169756e-001 1.91963874e-002
      1.67354457e-002 1.06167965e-001 2.55569160e-001 2.55569160e-001
      1.06793448e-001 2.42440313e-001 1.63184211e-001 2.55569160e-001
      1.54273152e-001 2.55569160e-001 2.55569160e-001 2.55569160e-001
      1.16939515e-001 1.42384291e-001 1.46550223e-001 2.17641011e-001
      2.27283642e-001 1.29768029e-001 1.26482904e-001 2.60433666e-002
      1.72004402e-001 1.88101262e-001 1.17001683e-001 9.94218215e-002
      1.59793064e-001 2.27283642e-001 6.93811476e-002 2.67163478e-002
      3.96163128e-002 2.27283642e-001 1.36307433e-001 2.18711138e-001
      2.25172237e-001 9.15985778e-002 2.15175867e-001 2.19732851e-001
      2.26524800e-001 1.39961809e-001 2.27283642e-001 1.30701780e-001
      2.27283642e-001 1.82775244e-001 1.54664800e-001 2.27283642e-001
      1.58333525e-001 9.14602727e-002 6.72532693e-002 1.64130092e-001
      3.68250608e-002 9.18829218e-002 7.56168813e-002 1.98043913e-001
      2.88146436e-001 1.15435168e-001 3.69301178e-002 6.06449926e-003
      3.70087288e-002 1.57556444e-001 1.27598971e-001 2.88146436e-001
      2.12844238e-001 2.33331665e-001 2.35456042e-002 1.05182296e-002
      3.01978388e-003 1.12229533e-001 6.45593405e-002 1.35591969e-001
      1.37498483e-001 2.88146436e-001 2.88146436e-001 1.51372448e-001
      7.60611817e-002 5.82398288e-002 5.09850681e-002 1.40734226e-001
      2.88146436e-001 2.88146436e-001 2.88146436e-001 2.88146436e-001
      6.21186905e-002 4.01831754e-002 2.93270461e-002 7.51659125e-002
      2.30584413e-001 1.02662690e-001 2.30584413e-001 2.22343057e-001
      1.16971903e-001 3.96186747e-002 2.82370243e-002 7.30234832e-002
      2.12007880e-001 2.30584413e-001 6.89475089e-002 2.00945750e-001
      1.56966358e-001 1.09374620e-001 1.62634388e-001 2.30584413e-001
      2.30584413e-001 2.30584413e-001 1.40904814e-001 1.46419510e-001
      2.30584413e-001 2.30584413e-001 1.60962820e-001 6.05563261e-002
      5.29857874e-002 4.73240688e-002 1.21239543e-001 1.16428390e-001
      6.53996170e-002 1.86558738e-001 2.07352221e-001 1.33507267e-001
      2.27117941e-001 1.37258604e-001 1.59645572e-001 1.94608822e-001
      8.23322162e-002 1.33347258e-001 2.20100090e-001 1.21148571e-001
      2.32631132e-001 2.32631132e-001 2.32631132e-001 2.25875854e-001
      2.32631132e-001 3.57980393e-002 1.22684598e-001 1.80166483e-001
      1.49822667e-001 2.32631132e-001 1.61410391e-001 9.73524898e-002
      4.52818498e-002 6.40508235e-002 4.51233238e-002 5.63393123e-002
      2.32631132e-001 2.32631132e-001 2.32631132e-001 2.32631132e-001
      1.40185848e-001 1.48180693e-001 1.68897554e-001 6.41455641e-003
      3.93830910e-002 1.97141171e-001 2.25694999e-001 2.32631132e-001
      1.83221966e-001 4.75348346e-002 3.11058741e-002 3.65966372e-002
      7.20276907e-002 1.50020361e-001 1.34045914e-001 2.48803839e-001
      2.48803839e-001 1.45483911e-001 7.99760446e-002 8.95503089e-002
      4.23944853e-002 7.43272677e-002 2.10620165e-001 2.48803839e-001
      2.48803839e-001 2.48803839e-001 1.25879034e-001 6.00627884e-002
      5.66701293e-002 4.18534055e-002 2.20433488e-001 1.97141200e-001
      9.17029008e-002 2.29174227e-001 2.48803839e-001 2.48803839e-001
      1.73547298e-001 9.57618132e-002 7.47784749e-002 1.63043320e-001
      7.13582113e-002 6.36285990e-002 1.98781088e-001 2.48803839e-001
      1.96108595e-001 1.46466866e-001 9.08317417e-002 9.09859985e-002
      8.65563750e-002 1.59987420e-001 2.15463430e-001 2.32533425e-001
      2.12296188e-001 1.01673178e-001 9.15411562e-002 1.07419640e-001
      1.06392354e-001 1.08500421e-001 1.36804223e-001 1.98035374e-001
      2.58668691e-001 2.58668691e-001 2.58668691e-001 8.95773843e-002
      1.35814577e-001 1.66272521e-001 1.01954073e-001 7.73089826e-002
      6.33100420e-002 1.08470067e-001 1.84401631e-001 1.34253561e-001
      1.25487953e-001 1.37579501e-001 6.97377548e-002 1.45695344e-001
      2.58668691e-001 2.58668691e-001 2.58668691e-001 2.58668691e-001
      9.39588696e-002 7.48289376e-002 1.45996481e-001 6.56922460e-002
      3.89243700e-002 7.45599493e-002 2.33638480e-001 2.85612792e-001
      2.85612792e-001 2.85612792e-001 1.09421559e-001 4.46624793e-002
      5.52294850e-002 5.23730693e-003 1.37815773e-002 1.44334957e-001
      2.55281717e-001 2.85612792e-001 1.87970832e-001 7.07936585e-002
      3.94590199e-003 6.39667129e-003 5.00330999e-002 2.35509545e-001
      2.85612792e-001 2.85612792e-001 2.85612792e-001 6.36645481e-002
      3.55233327e-002 6.89227432e-002 1.98426936e-002 7.44604692e-003
      5.11698462e-002 2.03952655e-001 1.56482100e-001 2.85612792e-001
      3.87164056e-002 2.28620712e-002 6.52399519e-003 8.70805874e-004</_>
    <_>
      6.72756135e-002 1.40230641e-001 1.52828708e-001 1.51940167e-001
      1.58017084e-001 1.31280348e-001 8.66611600e-002 9.46396515e-002
      7.09493980e-002 9.63599235e-002 1.44560516e-001 1.09498322e-001
      8.68446678e-002 1.06808148e-001 1.64115280e-001 1.64867610e-001
      1.64753616e-001 1.02616429e-001 1.56648353e-001 1.85977906e-001
      2.22290263e-001 2.22290263e-001 1.81539282e-001 2.22290263e-001
      1.91819683e-001 2.22290263e-001 1.14428796e-001 2.22290263e-001
      2.22290263e-001 2.22290263e-001 2.22290263e-001 2.17582628e-001
      1.96977302e-001 1.66275531e-001 2.09651098e-001 1.24539040e-001
      1.18196763e-001 1.09333128e-001 7.32238516e-002 4.81614359e-002
      9.27696303e-002 1.29948884e-001 1.60999238e-001 5.97486719e-002
      8.12565461e-002 8.31096098e-002 1.39587000e-001 1.63960427e-001
      1.59829080e-001 2.42497206e-001 2.14097142e-001 2.42497206e-001
      4.54884544e-002 8.03915411e-002 2.42497206e-001 2.42497206e-001
      1.69393063e-001 1.55997559e-001 1.89674050e-001 1.86108768e-001
      2.02754825e-001 5.01599237e-002 6.09230325e-002 2.42497206e-001
      2.42497206e-001 1.24449022e-001 2.01126277e-001 2.42497206e-001
      2.42497206e-001 2.42497206e-001 5.48528172e-002 1.00119337e-001
      9.83477086e-002 9.41087380e-002 8.52688700e-002 1.37276530e-001
      2.26274595e-001 1.31870091e-001 1.66524053e-001 1.20109737e-001
      5.05365692e-002 2.26274595e-001 1.82381198e-001 1.14488952e-001
      1.11983716e-001 1.82193473e-001 1.32540956e-001 1.26592800e-001
      2.02709511e-001 8.02490339e-002 1.24184139e-001 1.46808073e-001
      6.59738705e-002 1.62759364e-001 2.26274595e-001 2.26274595e-001
      2.26274595e-001 1.35996103e-001 1.01083398e-001 2.26274595e-001
      2.26274595e-001 1.36533141e-001 1.41302034e-001 2.13167638e-001
      2.02840492e-001 2.26274595e-001 2.26274595e-001 1.87723756e-001
      1.40939206e-001 1.33580416e-001 1.83710456e-001 1.25918269e-001
      9.34951156e-002 1.32080957e-001 1.19258739e-001 1.51084706e-001
      6.66840374e-002 2.19164759e-001 2.19164759e-001 2.19164759e-001
      2.19164759e-001 2.19164759e-001 1.41998917e-001 9.61249322e-002
      1.06699772e-001 1.12498477e-001 2.03859553e-001 2.02809185e-001
      1.57905295e-001 9.97195393e-002 1.41761914e-001 1.25298157e-001
      7.13335723e-002 7.01193288e-002 1.03120282e-001 2.19164759e-001
      2.04799101e-001 2.19164759e-001 2.19164759e-001 2.19164759e-001
      2.10633159e-001 2.19164759e-001 1.34993911e-001 1.74648479e-001
      1.79266512e-001 1.65720567e-001 1.00448132e-001 1.62636638e-001
      1.53634638e-001 1.27355486e-001 1.24584928e-001 2.97626760e-002
      7.92475864e-002 1.68865994e-001 1.70798808e-001 6.29725307e-002
      1.57050580e-001 1.65405720e-001 2.15588793e-001 2.08875254e-001
      4.30406556e-002 1.16527744e-001 2.00338989e-001 1.88163087e-001
      1.20690651e-001 1.58531964e-001 1.70456991e-001 1.70225039e-001
      2.15588793e-001 1.14141241e-001 1.58063084e-001 2.15588793e-001
      2.15588793e-001 1.06769040e-001 2.15588793e-001 2.06013396e-001
      2.15588793e-001 2.15588793e-001 1.84564844e-001 2.04739034e-001
      1.37539536e-001 1.48235843e-001 5.58153428e-002 1.17799893e-001
      1.90756738e-001 2.13485166e-001 1.16796210e-001 4.56528515e-002
      1.07797422e-001 2.13485166e-001 1.71434790e-001 1.37404427e-001
      1.82960719e-001 1.91328838e-001 1.58442602e-001 1.26422942e-001
      1.23491034e-001 1.98917016e-001 1.59394935e-001 1.59970179e-001
      8.51787329e-002 2.06709817e-001 2.13485166e-001 1.72117934e-001
      1.42879561e-001 1.64788052e-001 1.52894288e-001 1.70310915e-001
      1.20594174e-001 1.41298965e-001 2.13485166e-001 2.13485166e-001
      2.13485166e-001 2.13485166e-001 1.79775059e-001 2.13485166e-001
      1.56249270e-001 1.75482050e-001 1.84076414e-001 7.29450434e-002
      9.48106125e-002 6.48213252e-002 1.38775676e-001 6.81135356e-002
      8.46543908e-002 2.23279729e-001 1.94568202e-001 2.28300974e-001
      1.52528018e-001 1.37966618e-001 1.33681044e-001 1.47316903e-001
      8.65794420e-002 1.88729107e-001 7.78876096e-002 2.28300974e-001
      2.28300974e-001 1.49621248e-001 1.82584777e-001 8.57783556e-002
      1.77703500e-001 6.68896437e-002 5.42984456e-002 2.28300974e-001
      2.28300974e-001 2.28300974e-001 2.28300974e-001 2.28300974e-001
      2.22470775e-001 1.24857076e-001 6.34700507e-002 2.28300974e-001
      1.22199409e-001 1.12545989e-001 1.26001999e-001 6.72404841e-002
      7.63536766e-002 1.46337166e-001 2.07340658e-001 9.39094499e-002
      1.23346083e-001 1.13168031e-001 1.31646961e-001 7.62795731e-002
      7.40672424e-002 8.52675736e-002 1.93305001e-001 2.30811641e-001
      2.25482002e-001 8.24175552e-002 2.18633235e-001 1.15346506e-001
      2.04127342e-001 2.30811641e-001 2.30811641e-001 1.99035272e-001
      1.48560241e-001 5.44175170e-002 1.61683738e-001 2.30811641e-001
      1.45443186e-001 2.08362296e-001 2.30811641e-001 2.30811641e-001
      2.30811641e-001 2.30811641e-001 1.53605103e-001 6.16207272e-002
      9.14430395e-002 1.02847114e-001 9.00018364e-002 1.06187232e-001
      9.54405591e-002 1.73119813e-001 1.88676536e-001 2.16839388e-001
      1.23002246e-001 1.19944580e-001 1.12590067e-001 1.06581010e-001
      1.29254788e-001 1.22690119e-001 2.16839388e-001 2.16839388e-001
      2.16839388e-001 1.86755195e-001 1.50026798e-001 1.37865961e-001
      2.16839388e-001 2.16839388e-001 1.87683076e-001 2.09790036e-001
      2.16839388e-001 1.74946725e-001 9.22662616e-002 1.34040698e-001
      1.62129477e-001 2.16839388e-001 1.86896712e-001 9.67926309e-002
      1.41716182e-001 2.16523528e-001 2.16839388e-001 1.61512956e-001</_>
    <_>
      6.46140277e-002 1.22330271e-001 2.27406844e-001 1.56324595e-001
      1.33118764e-001 1.74997225e-001 1.90079868e-001 1.35275424e-001
      1.01834491e-001 1.11449204e-001 1.56779930e-001 2.27406844e-001
      1.71919778e-001 1.31763652e-001 1.40323073e-001 2.06601813e-001
      1.35032132e-001 1.49628595e-001 1.57374188e-001 9.59526449e-002
      2.27406844e-001 1.92819029e-001 2.27406844e-001 1.80110127e-001
      1.75949618e-001 2.02864647e-001 1.41242102e-001 1.78899020e-001
      1.44483238e-001 2.27406844e-001 1.95830613e-001 1.38293177e-001
      1.16127230e-001 1.53807208e-001 1.81995317e-001 1.38731733e-001
      1.64142564e-001 1.41749218e-001 1.07231602e-001 1.42469406e-001
      7.38865212e-002 1.04481384e-001 2.42742404e-001 2.36706272e-001
      1.43356204e-001 1.46532729e-001 1.34252384e-001 6.28904402e-002
      1.43424198e-001 9.00900438e-002 1.24564976e-001 2.17296675e-001
      2.42476597e-001 1.89095542e-001 1.41698554e-001 9.36415344e-002
      1.22854561e-001 1.37618065e-001 9.97390822e-002 1.83842853e-001
      2.42742404e-001 2.42742404e-001 1.50546208e-001 1.10306382e-001
      6.84560314e-002 4.66681011e-002 1.81546420e-001 1.84999347e-001
      2.42742404e-001 2.42742404e-001 2.42742404e-001 1.65269420e-001
      1.19122788e-001 8.91167447e-002 8.50619823e-002 1.95070833e-001
      1.60559312e-001 1.59206271e-001 1.77195504e-001 1.31383479e-001
      2.09714055e-001 1.48929596e-001 5.10572083e-002 1.20009862e-001
      2.20838785e-001 1.97303429e-001 1.84201106e-001 1.45883352e-001
      1.26270041e-001 2.20838785e-001 9.60698426e-002 6.23692572e-002
      1.24378860e-001 1.64291069e-001 2.07660481e-001 2.20838785e-001
      2.20838785e-001 1.92420989e-001 1.68201074e-001 7.49628469e-002
      5.93476780e-002 1.44596368e-001 2.14108229e-001 2.20838785e-001
      2.20838785e-001 1.92481771e-001 1.37774393e-001 2.20838785e-001
      1.50522500e-001 6.49795532e-002 1.38312444e-001 2.25234166e-001
      1.79713190e-001 1.27281055e-001 2.44720802e-001 2.24590361e-001
      1.40536174e-001 9.96132940e-002 6.19841926e-002 1.81850836e-001
      1.71287313e-001 9.88764167e-002 9.03267935e-002 1.60412326e-001
      1.65889412e-001 9.72450674e-002 1.52722374e-001 9.72717702e-002
      2.21557856e-001 2.44720802e-001 1.46626890e-001 2.08539844e-001
      2.44720802e-001 2.36914888e-001 1.06611788e-001 7.99798295e-002
      5.15330955e-002 1.14658386e-001 1.74561575e-001 1.15333661e-001
      1.99690491e-001 2.44720802e-001 2.44720802e-001 7.52400532e-002
      4.70757149e-002 4.25147898e-002 1.07099250e-001 1.17718600e-001
      9.78430882e-002 2.01469555e-001 1.37690172e-001 1.20796330e-001
      6.45526946e-002 6.15830719e-002 3.92437354e-002 3.15961279e-002
      1.44626141e-001 2.58770615e-001 2.82115728e-001 2.82115728e-001
      2.25189388e-001 5.65418862e-002 6.41611591e-002 3.89452837e-002
      8.34484398e-002 1.07613720e-001 8.57876912e-002 1.41941071e-001
      2.82115728e-001 2.12376133e-001 1.05667166e-001 7.89642408e-002
      7.97679797e-002 1.98426500e-001 2.82115728e-001 2.82115728e-001
      2.55603909e-001 2.82115728e-001 1.37793168e-001 1.00252137e-001
      7.07394034e-002 6.33555651e-002 9.24098566e-002 2.15318903e-001
      2.15686977e-001 2.49542311e-001 2.49542311e-001 1.36085302e-001
      3.92068624e-002 7.11686462e-002 7.30184540e-002 1.51190743e-001
      2.49542311e-001 2.14169785e-001 8.78273249e-002 8.29484239e-002
      1.11546025e-001 1.15253247e-001 6.12478517e-002 1.08987957e-001
      1.95384204e-001 2.49542311e-001 2.49542311e-001 1.91014722e-001
      2.49542311e-001 1.26986682e-001 7.12746978e-002 1.11369573e-001
      9.96928364e-002 1.92309231e-001 2.49542311e-001 2.49542311e-001
      1.03468232e-001 1.36627778e-001 1.47503495e-001 1.65657699e-001
      1.26287237e-001 1.11937664e-001 1.97974935e-001 2.25472689e-001
      1.69572353e-001 1.64789632e-001 2.33313560e-001 1.36514440e-001
      1.49223134e-001 1.77062646e-001 5.71268275e-002 7.76068494e-002
      1.30519390e-001 1.68135941e-001 1.87699169e-001 2.33313560e-001
      2.33313560e-001 1.37913495e-001 1.22280084e-001 1.65526733e-001
      1.00976899e-001 1.16997175e-001 1.73083439e-001 1.37931913e-001
      1.43214598e-001 1.80221677e-001 1.78364486e-001 1.98319852e-001
      1.69628248e-001 7.44280219e-002 1.42091259e-001 1.80012614e-001
      1.04005739e-001 2.33313560e-001 2.33313560e-001 1.81369215e-001
      1.66209847e-001 4.46177013e-002 5.09821437e-002 8.13786089e-002
      8.52053761e-002 7.58962408e-002 2.24346861e-001 2.24346861e-001
      2.19801947e-001 1.72237262e-001 1.16400003e-001 2.02767402e-001
      2.24346861e-001 1.77434564e-001 8.31580609e-002 1.13360129e-001
      1.66341931e-001 1.92153990e-001 1.88610062e-001 1.30833596e-001
      9.15725380e-002 1.39327139e-001 1.06879123e-001 5.90835586e-002
      1.76927671e-001 2.24346861e-001 2.24346861e-001 2.19696730e-001
      2.24346861e-001 1.55236006e-001 1.82204843e-001 1.83342680e-001
      9.55727845e-002 1.40518263e-001 2.24346861e-001 2.24346861e-001
      1.30718663e-001 1.41816974e-001 2.16347501e-001 2.35314518e-001
      2.35314518e-001 1.28366217e-001 1.21198311e-001 1.35867402e-001
      1.02712624e-001 1.25215247e-001 9.64890048e-002 1.47891313e-001
      2.35314518e-001 2.35314518e-001 9.97269675e-002 1.43154591e-001
      1.67398080e-001 1.58706620e-001 2.06820443e-001 2.35314518e-001
      1.09980270e-001 1.65448159e-001 2.32091039e-001 1.13853991e-001
      1.34412751e-001 1.29332021e-001 1.56479582e-001 1.06073819e-001
      1.63650349e-001 1.67724788e-001 2.35314518e-001 2.35314518e-001
      1.49489865e-001 1.57165229e-001 7.68876076e-002 8.87098312e-002</_>
    <_>
      8.13693330e-002 7.97356442e-002 2.05310769e-002 1.75317913e-001
      2.24704072e-001 1.61625624e-001 1.17850788e-001 1.51851088e-001
      9.26116481e-002 4.32014354e-002 7.67877176e-002 3.19144018e-002
      2.79630572e-001 2.79630572e-001 2.79630572e-001 1.87058136e-001
      1.01118721e-001 5.62603474e-002 7.04399794e-002 1.08432814e-001
      6.65837005e-002 2.43242770e-001 1.51564106e-001 1.82509080e-001
      1.23568177e-001 1.01457395e-001 1.02316000e-001 1.60809860e-001
      2.00741768e-001 6.70201555e-002 2.79630572e-001 2.79630572e-001
      2.79630572e-001 1.31891415e-001 1.21049233e-001 1.71110004e-001
      1.75419226e-002 1.59179661e-002 1.32671790e-002 8.67525488e-002
      2.29630306e-001 2.65367478e-001 1.01366974e-001 5.22512533e-002
      3.67380865e-002 1.14498073e-002 4.26495746e-002 2.23291256e-002
      7.80850798e-002 2.11797506e-001 2.65922755e-001 2.33936310e-001
      5.97382449e-002 2.33846344e-002 2.65922755e-001 2.18800917e-001
      3.28674726e-002 1.78027868e-001 2.37184644e-001 1.94339916e-001
      8.35637599e-002 8.18784833e-002 1.84800074e-001 2.65922755e-001
      1.47658005e-001 2.04332676e-002 1.24027006e-001 2.33997360e-001
      2.65922755e-001 2.59873062e-001 1.96292922e-001 1.88508347e-001
      2.02284437e-002 1.03798069e-001 9.81256515e-002 1.39135733e-001
      2.58875817e-001 2.77347267e-001 2.77347267e-001 7.22481683e-002
      3.23929712e-002 5.65629825e-002 1.04265012e-001 1.15583368e-001
      1.19994074e-001 1.83326721e-001 1.75434411e-001 2.12292418e-001
      5.49969114e-002 6.70227036e-002 1.20027684e-001 5.32396398e-002
      4.07188050e-002 1.39606819e-001 2.77347267e-001 2.77347267e-001
      2.77347267e-001 1.63994938e-001 8.27896670e-002 8.48263949e-002
      8.79886076e-002 4.85944301e-002 1.11008115e-001 2.77347267e-001
      2.77347267e-001 2.77347267e-001 5.83728477e-002 6.65876493e-002
      6.59630820e-002 1.01411112e-001 9.92997587e-002 1.68330923e-001
      1.19291514e-001 1.45513311e-001 9.58724618e-002 5.42258695e-002
      5.34524098e-002 1.81596950e-001 2.41400763e-001 1.26988649e-001
      2.54433870e-001 2.54433870e-001 2.54433870e-001 1.04195856e-001
      8.00945461e-002 1.24578036e-001 1.00632183e-001 9.45386738e-002
      9.95764136e-002 1.42127812e-001 2.54433870e-001 1.73482120e-001
      1.89024970e-001 7.80477896e-002 7.35737234e-002 1.44311115e-001
      9.76373255e-002 1.16843812e-001 2.54433870e-001 2.54433870e-001
      2.54433870e-001 2.54433870e-001 2.21151963e-001 1.29381657e-001
      2.34558925e-001 1.87264949e-001 3.09519451e-002 1.63597330e-001
      1.62386328e-001 1.58085257e-001 5.96955381e-002 5.60063832e-002
      1.21788070e-001 2.34558925e-001 1.11984015e-001 2.79870201e-002
      2.31797203e-001 2.34558925e-001 2.34558925e-001 6.73570409e-002
      1.32330254e-001 1.35991380e-001 1.19393937e-001 9.21778306e-002
      4.22039963e-002 1.25759736e-001 1.55059189e-001 2.31529728e-001
      1.89132005e-001 2.01104745e-001 2.04337835e-001 1.75634876e-001
      2.25540906e-001 1.39031321e-001 2.34558925e-001 2.34558925e-001
      1.48485422e-001 7.56423697e-002 1.32106423e-001 2.05027536e-001
      8.60724971e-002 2.79222876e-002 1.97111275e-002 2.38157243e-001
      2.98414856e-001 2.98414856e-001 1.31197870e-001 9.23073292e-002
      4.22795862e-002 3.18632796e-002 2.46035066e-002 1.22063737e-002
      1.04313821e-001 2.98414856e-001 2.89291501e-001 1.43226475e-001
      4.97221872e-002 1.53072877e-002 7.75635764e-002 1.39397085e-001
      1.20722026e-001 2.98414856e-001 2.98414856e-001 2.84196347e-001
      3.91634069e-002 2.43759137e-002 3.44853885e-002 1.65306553e-002
      2.17751376e-002 6.57060966e-002 1.82112128e-001 2.98414856e-001
      2.62573063e-001 1.21588126e-001 6.42421544e-002 1.18659586e-002
      8.72259662e-002 1.20241448e-001 5.98845817e-002 1.35868743e-001
      2.34694362e-001 2.11159497e-001 2.01479197e-001 8.96434486e-002
      7.41333291e-002 1.03002802e-001 9.28154215e-002 7.51670226e-002
      2.34694362e-001 2.34694362e-001 2.34694362e-001 1.90004244e-001
      1.94595382e-001 1.34546533e-001 7.07874447e-002 1.45099923e-001
      1.12407021e-001 1.53186947e-001 2.34694362e-001 2.34694362e-001
      1.67023554e-001 2.12112710e-001 8.93586576e-002 4.30226848e-002
      1.59291014e-001 1.77087545e-001 2.34694362e-001 2.34694362e-001
      2.34694362e-001 1.42791107e-001 1.14792414e-001 8.34094808e-002
      1.40565813e-001 7.14678243e-002 4.62728627e-002 1.63853988e-001
      1.74095362e-001 1.32406726e-001 1.47988498e-001 2.45540336e-001
      2.50714898e-001 2.39821523e-001 2.50714898e-001 1.55048907e-001
      2.50714898e-001 2.50714898e-001 1.39947236e-001 1.08024009e-001
      1.46936461e-001 2.44620964e-001 4.07544896e-002 6.39176890e-002
      8.18066671e-002 2.39018351e-001 2.22638249e-001 9.34669077e-002
      9.22440588e-002 6.29654229e-002 5.38632348e-002 4.75135855e-002
      5.54217510e-002 7.44725764e-002 2.50714898e-001 2.50714898e-001
      2.50714898e-001 1.43615410e-001 5.56918904e-002 3.89035903e-002
      8.71767104e-002 1.38607606e-001 1.27674595e-001 2.78717369e-001
      2.78717369e-001 2.26910099e-001 9.17172283e-002 2.87296772e-002
      4.06932607e-002 2.57359967e-002 4.33885455e-002 8.83694887e-002
      2.30841264e-001 2.78717369e-001 2.20894694e-001 1.60013080e-001
      7.66452402e-002 5.02915010e-002 1.57550499e-002 1.86399259e-002
      6.21070713e-002 2.32208535e-001 2.78717369e-001 2.78717369e-001
      1.78383067e-001 4.46180515e-002 3.64381038e-002 3.36367339e-002
      4.71134149e-002 9.35965553e-002 1.87812716e-001 2.78717369e-001
      2.78717369e-001 1.66736588e-001 1.00268342e-001 1.50797993e-001</_>
    <_>
      2.18724370e-001 1.25944868e-001 1.06671840e-001 1.55804411e-001
      1.66046575e-001 1.04388639e-001 1.25210986e-001 1.21458068e-001
      2.18724370e-001 2.18724370e-001 1.27253860e-001 7.76324049e-002
      7.80541822e-002 1.37270123e-001 1.34430096e-001 1.36127070e-001
      1.76777378e-001 2.18724370e-001 1.49022445e-001 1.08604468e-001
      8.79713744e-002 1.78477854e-001 2.18724370e-001 2.18724370e-001
      1.98448777e-001 2.18724370e-001 2.12876454e-001 1.78792238e-001
      1.17326193e-001 1.06507994e-001 1.29059285e-001 1.88056305e-001
      1.99961513e-001 1.83277920e-001 2.12531835e-001 2.03401789e-001
      2.50054717e-001 5.75870499e-002 2.11189613e-002 3.00786663e-002
      1.28146917e-001 8.65458399e-002 6.12325408e-002 2.35447913e-001
      2.55384743e-001 1.53372884e-001 6.73440397e-002 2.54006609e-002
      6.41154647e-002 2.55384743e-001 1.60497561e-001 7.29625523e-002
      1.70212448e-001 1.72139913e-001 2.37851724e-001 6.89879358e-002
      8.01650360e-002 1.41850710e-001 2.30736673e-001 1.86434731e-001
      9.72965881e-002 2.30857283e-001 2.33097389e-001 1.76563397e-001
      6.48265630e-002 7.24817812e-002 1.92962408e-001 2.55384743e-001
      2.55384743e-001 1.74686164e-001 1.91138580e-001 1.60874024e-001
      3.80382873e-002 3.94462645e-002 4.47904393e-002 2.43268952e-001
      2.97254920e-001 2.17500538e-001 1.43427104e-001 7.56739751e-002
      4.15990576e-002 1.06181346e-001 4.27922346e-002 4.55532297e-002
      2.01104194e-001 2.97254920e-001 1.42045632e-001 8.88477564e-002
      9.03998166e-002 1.21633723e-001 4.31852415e-002 2.80039050e-002
      5.35483994e-002 2.97254920e-001 2.97254920e-001 2.97254920e-001
      1.60452068e-001 5.82895391e-002 5.90637773e-002 1.32642031e-001
      3.27906534e-002 5.03464118e-002 2.48487949e-001 2.97254920e-001
      2.46605143e-001 1.38842404e-001 5.87210618e-002 1.26666263e-001
      7.24599287e-002 6.61015287e-002 3.99074182e-002 6.56309500e-002
      1.07610516e-001 1.73428386e-001 2.37000540e-001 2.37000540e-001
      1.46268278e-001 1.09141916e-001 1.05132371e-001 1.10469289e-001
      9.45203230e-002 1.29709229e-001 1.34813532e-001 1.49114609e-001
      1.64733157e-001 1.06166244e-001 1.96698874e-001 1.80306971e-001
      1.54587924e-001 7.14998618e-002 5.74313998e-002 7.61903003e-002
      2.37000540e-001 2.37000540e-001 2.37000540e-001 2.37000540e-001
      2.37000540e-001 2.37000540e-001 1.01209328e-001 2.04655990e-001
      1.07348330e-001 2.14396223e-001 2.37000540e-001 2.34223485e-001
      1.04724847e-001 7.08365291e-002 1.25781342e-001 1.48600966e-001
      1.60608619e-001 1.68182418e-001 8.27929005e-002 1.13949999e-001
      8.65339786e-002 1.20572142e-001 4.96099517e-002 9.43678021e-002
      1.72318161e-001 2.37612113e-001 2.37612113e-001 2.37612113e-001
      1.85322419e-001 2.37612113e-001 2.37612113e-001 1.09150372e-001
      1.29657269e-001 7.07045868e-002 1.31249219e-001 1.09875999e-001
      1.25082552e-001 2.34364763e-001 2.22136080e-001 1.67666078e-001
      1.41092420e-001 9.29527059e-002 1.11465238e-001 1.10579036e-001
      2.37612113e-001 2.37612113e-001 2.37612113e-001 2.37612113e-001
      5.83417043e-002 4.04798798e-002 5.07800058e-002 1.72027141e-001
      2.42058352e-001 2.42058352e-001 2.42058352e-001 1.11028254e-001
      1.77640706e-001 1.40580207e-001 6.85684979e-002 5.39038107e-002
      1.46727160e-001 2.42058352e-001 2.42058352e-001 1.92824081e-001
      4.73890044e-002 7.41412491e-002 7.35751614e-002 1.44214705e-001
      1.25942603e-001 2.28169501e-001 2.35506937e-001 2.42058352e-001
      2.42058352e-001 1.30049080e-001 2.12275684e-001 9.39817205e-002
      8.51210132e-002 1.21047713e-001 1.94944620e-001 2.20639691e-001
      2.30230659e-001 1.61238760e-001 3.85410897e-002 5.51158898e-002
      1.72062322e-001 1.64286703e-001 2.27232099e-001 1.93789884e-001
      5.99533580e-002 7.09546506e-002 1.43847644e-001 2.05615029e-001
      1.88044652e-001 2.27232099e-001 2.27232099e-001 2.27232099e-001
      2.26949349e-001 1.69134423e-001 9.91157666e-002 1.09083928e-001
      2.15771511e-001 2.27232099e-001 9.36949849e-002 1.41967863e-001
      2.27232099e-001 2.27232099e-001 1.59432188e-001 8.37135762e-002
      2.61077601e-002 5.06233685e-002 1.21844620e-001 1.33518606e-001
      1.40469164e-001 1.89965546e-001 1.73724070e-001 1.72793224e-001
      1.49382770e-001 5.30650355e-002 8.59021097e-002 2.02832788e-001
      2.31560349e-001 1.89773947e-001 1.45511791e-001 1.12936899e-001
      9.99104902e-002 4.76278812e-002 1.08097903e-001 2.31560349e-001
      2.31560349e-001 2.03309551e-001 2.31560349e-001 1.37181461e-001
      1.63388446e-001 1.25585347e-001 1.11757413e-001 2.31560349e-001
      2.31560349e-001 2.31560349e-001 1.54582396e-001 1.70806974e-001
      1.13014169e-001 6.78113401e-002 1.41046330e-001 1.20631739e-001
      7.25807250e-002 9.82752591e-002 1.66831613e-001 1.38010696e-001
      1.98335975e-001 1.17334045e-001 1.31517828e-001 2.22373083e-001
      1.57798797e-001 2.31560349e-001 1.22282594e-001 1.82585597e-001
      4.70624305e-002 2.17382893e-001 1.71379179e-001 2.34193757e-001
      2.13688627e-001 2.28646308e-001 2.34193757e-001 1.11292869e-001
      2.00127319e-001 2.98599321e-002 1.00340411e-001 2.01323107e-001
      2.34193757e-001 1.68432623e-001 1.56131789e-001 1.31581575e-001
      5.48321381e-002 6.87837005e-002 5.27339652e-002 9.89581570e-002
      1.43030152e-001 2.34193757e-001 2.34193757e-001 2.34193757e-001
      2.34193757e-001 1.05241023e-001 1.29215151e-001 3.28495800e-002
      9.31834653e-002 1.69849813e-001 2.34193757e-001 1.99104756e-001
      1.40521526e-001 1.82548985e-001 7.81848878e-002 4.62186411e-002</_>
    <_>
      2.95991525e-002 7.26782084e-002 7.35689849e-002 1.91105187e-001
      2.68561631e-001 2.68561631e-001 9.81176943e-002 1.15273222e-001
      9.64362472e-002 1.49577111e-001 1.31406024e-001 1.13045730e-001
      1.43582568e-001 2.68561631e-001 1.04039915e-001 3.85887176e-002
      5.65426536e-002 8.14718902e-002 6.87017590e-002 1.07827686e-001
      1.66885257e-001 2.68561631e-001 2.68561631e-001 2.19391435e-001
      1.43122926e-001 1.12630360e-001 1.40541896e-001 1.37155160e-001
      1.96716055e-001 2.68561631e-001 2.68561631e-001 2.68561631e-001
      1.27783388e-001 3.77176069e-002 6.64565191e-002 1.41046897e-001
      2.41107315e-001 1.87612414e-001 7.89116547e-002 6.31317049e-002
      1.26120567e-001 2.66688112e-002 1.86775737e-002 7.92780984e-003
      4.53079566e-002 2.56235093e-001 2.56235093e-001 8.72033685e-002
      5.36466539e-002 7.66806677e-002 9.02226865e-002 1.05043367e-001
      3.05064972e-002 1.83275402e-001 1.81088284e-001 2.10912243e-001
      2.56235093e-001 2.56235093e-001 2.41781354e-001 1.17637455e-001
      2.09422521e-002 1.67361312e-002 5.03110141e-002 2.56235093e-001
      2.56235093e-001 2.56235093e-001 1.89323962e-001 1.89929396e-001
      2.56235093e-001 1.89532593e-001 4.37089503e-002 1.30121097e-001
      2.20285520e-001 1.28244370e-001 8.31367448e-002 4.96845655e-002
      7.63732120e-002 1.92821294e-001 2.13153303e-001 5.23542464e-002
      1.83243632e-001 1.06441051e-001 6.86321929e-002 7.93784857e-002
      5.16976342e-002 1.72256440e-001 2.12251008e-001 2.20285520e-001
      9.98590067e-002 1.69685841e-001 2.18017682e-001 2.20285520e-001
      2.20285520e-001 1.26408800e-001 1.71009526e-001 2.20285520e-001
      2.20285520e-001 4.78424542e-002 1.95478916e-001 2.00064331e-001
      1.67070508e-001 2.06458464e-001 8.13713223e-002 2.20285520e-001
      1.70129210e-001 1.78063050e-001 9.69882756e-002 2.20285520e-001
      8.38023946e-002 5.28305732e-002 1.28894970e-001 1.76301569e-001
      2.25361526e-001 1.57531127e-001 1.15476087e-001 1.51293114e-001
      1.15770817e-001 1.33232340e-001 1.90034971e-001 2.43358493e-001
      2.43358493e-001 1.91193998e-001 1.05555810e-001 3.09746917e-002
      7.38936812e-002 9.95402932e-002 6.40753508e-002 4.06647548e-002
      1.09370925e-001 1.08218931e-001 2.43358493e-001 2.15965211e-001
      1.66043296e-001 2.42490470e-001 1.49814785e-001 1.26759410e-001
      2.08736509e-001 2.43358493e-001 2.43358493e-001 2.43358493e-001
      2.26762861e-001 8.11250806e-002 1.70712307e-001 9.96139199e-002
      9.37038958e-002 1.81634679e-001 2.59856075e-001 2.59856075e-001
      1.51977628e-001 9.88057032e-002 3.06920130e-002 2.89162416e-002
      5.17585501e-002 9.33209211e-002 1.95345059e-001 2.59856075e-001
      1.85873464e-001 1.74690619e-001 2.59856075e-001 2.59856075e-001
      2.54270490e-002 4.96936329e-002 1.04688928e-001 1.45913482e-001
      1.59526587e-001 2.01699376e-001 1.93261161e-001 9.70897228e-002
      3.66633907e-002 4.56896089e-002 6.39961436e-002 1.09632194e-001
      9.02228281e-002 2.59856075e-001 1.85097605e-001 2.03240231e-001
      2.59856075e-001 2.59856075e-001 4.10429612e-002 1.13868058e-001
      8.36674422e-002 1.70413196e-001 2.28645012e-001 9.15644690e-002
      1.68869480e-001 1.90706775e-001 2.28142560e-001 5.50240166e-002
      1.23335920e-001 1.28713533e-001 1.29900843e-001 1.18406810e-001
      6.01436459e-002 2.28645012e-001 7.47219101e-002 3.32086235e-002
      7.61775374e-002 2.09051743e-001 1.93494394e-001 1.95131302e-001
      2.22980216e-001 1.21469237e-001 2.28645012e-001 2.28645012e-001
      2.28645012e-001 7.56460503e-002 2.05000430e-001 2.28645012e-001
      2.07948893e-001 9.82386395e-002 2.89763361e-002 2.28645012e-001
      1.14082627e-001 1.56055868e-001 1.17372610e-001 2.28645012e-001
      1.64847877e-002 2.64699198e-002 5.18004373e-002 7.02043548e-002
      2.52430409e-001 1.93457410e-001 1.26365647e-001 1.42351985e-001
      1.01091504e-001 1.79305628e-001 5.18918596e-002 1.15429215e-001
      2.07264289e-001 2.52430409e-001 2.52430409e-001 1.58969715e-001
      2.30203077e-001 2.18147472e-001 1.68758407e-002 7.96712041e-002
      9.65849906e-002 1.03561841e-001 2.52430409e-001 2.49922410e-001
      8.81961733e-002 5.23860045e-002 4.15076949e-002 2.03758746e-001
      8.50977451e-002 8.83623660e-002 1.96126550e-001 2.52430409e-001
      2.52430409e-001 1.53885543e-001 1.47926167e-001 2.52430409e-001
      2.55817056e-001 4.99239601e-002 4.97748516e-002 1.03218585e-001
      2.21887529e-001 1.16422273e-001 5.15194498e-002 1.05074346e-001
      2.55817056e-001 2.55817056e-001 1.33217663e-001 2.28786111e-001
      2.55817056e-001 2.55817056e-001 1.53535292e-001 1.07174657e-001
      2.50199605e-002 2.55817056e-001 2.55817056e-001 4.69017737e-002
      1.92827079e-002 7.29579106e-002 1.52296707e-001 1.57343388e-001
      4.90372740e-002 8.34473148e-002 2.55817056e-001 2.55817056e-001
      1.09488383e-001 3.37570161e-002 1.52528808e-001 2.03377560e-001
      4.00369540e-002 1.92857422e-002 1.39130633e-002 2.55817056e-001
      1.70963094e-001 1.94139332e-001 1.88258305e-001 1.68628588e-001
      2.24041343e-001 1.37669295e-001 1.76831931e-001 9.68299359e-002
      1.75655633e-001 2.24041343e-001 2.24041343e-001 1.52781412e-001
      4.70293909e-002 2.24041343e-001 1.66620150e-001 2.24041343e-001
      1.91062078e-001 2.24041343e-001 1.22786343e-001 8.39600936e-002
      5.37111312e-002 8.01697150e-002 2.07468584e-001 5.16392775e-002
      1.13950178e-001 1.05037980e-001 1.51802912e-001 1.88176334e-001
      1.49011761e-001 1.42475680e-001 7.76096359e-002 2.24041343e-001
      9.77501124e-002 1.77293882e-001 1.91849455e-001 2.22235158e-001</_>
    <_>
      2.57183686e-002 6.37503266e-002 1.69365421e-001 2.75858909e-001
      2.75858909e-001 1.87423050e-001 4.56700996e-002 4.13426161e-002
      5.33183701e-002 5.88183030e-002 8.60840976e-002 8.97281915e-002
      1.53269380e-001 2.09738567e-001 1.64521486e-001 1.29617795e-001
      1.79621175e-001 9.97554511e-002 1.72807109e-002 5.33229932e-002
      1.73020616e-001 2.75858909e-001 2.75858909e-001 2.70711988e-001
      6.15491048e-002 4.17062081e-002 3.52098681e-002 2.99850330e-002
      6.86505139e-002 2.62909770e-001 2.75858909e-001 2.75858909e-001
      2.11372867e-001 1.14609815e-001 1.93018481e-001 1.00294895e-001
      3.50678898e-002 9.43018049e-002 8.62484798e-002 9.87799391e-002
      1.51031479e-001 1.24665879e-001 1.29235074e-001 1.53396800e-001
      7.51639009e-002 7.06217214e-002 5.93007654e-002 9.51638818e-002
      1.26088157e-001 2.38380939e-001 2.38380939e-001 1.90278620e-001
      1.37795359e-001 1.38550803e-001 4.20688875e-002 6.11648411e-002
      1.98038459e-001 2.38380939e-001 2.38380939e-001 2.38380939e-001
      1.61592156e-001 2.04792082e-001 2.03999192e-001 8.63882005e-002
      8.08130801e-002 1.20419428e-001 2.08205447e-001 2.38380939e-001
      2.38380939e-001 2.34652191e-001 2.10563973e-001 2.34089166e-001
      1.03820972e-001 6.95771202e-002 5.99336289e-002 1.19333982e-001
      2.15408280e-001 2.15408280e-001 2.10791528e-001 1.61281586e-001
      9.93874669e-002 2.15408280e-001 1.90591812e-001 1.69061273e-001
      2.15408280e-001 2.15408280e-001 1.42900124e-001 1.72430426e-001
      1.52377725e-001 1.40744478e-001 1.04336448e-001 6.13464266e-002
      1.03622004e-001 1.64963901e-001 2.15408280e-001 1.47664428e-001
      1.60736635e-001 2.03569472e-001 1.46396443e-001 2.07955092e-001
      1.73680216e-001 1.18036121e-001 2.15408280e-001 1.89446688e-001
      1.08556606e-001 1.39612541e-001 1.92759186e-001 2.15408280e-001
      1.78559255e-002 3.27942409e-002 1.24605440e-001 2.12148845e-001
      2.77940720e-001 2.50533044e-001 6.33448064e-002 1.88742895e-002
      3.83313862e-003 2.30773427e-002 5.44867106e-002 2.72330523e-001
      2.77940720e-001 2.77940720e-001 1.99997723e-001 7.71290660e-002
      4.36300077e-002 2.09640227e-002 3.85639109e-002 3.00710779e-002
      5.60266078e-002 2.38020301e-001 2.77940720e-001 2.16404036e-001
      6.63928166e-002 4.08032164e-002 6.89437464e-002 8.70116204e-002
      7.43311048e-002 2.01519907e-001 2.77940720e-001 2.77940720e-001
      2.67743528e-001 9.96022969e-002 1.00694232e-001 1.15705878e-001
      1.72262136e-002 2.21979190e-002 1.03436776e-001 2.56320447e-001
      2.56320447e-001 1.91597909e-001 9.56022516e-002 4.63352390e-002
      6.18761256e-002 4.63826954e-002 7.93845877e-002 5.84414490e-002
      1.67570338e-001 2.20639363e-001 2.56320447e-001 2.13921949e-001
      7.31813908e-002 7.12085143e-002 1.46284640e-001 1.04402997e-001
      9.02002975e-002 2.56320447e-001 2.56320447e-001 2.32535020e-001
      6.76982924e-002 5.05458824e-002 9.97617990e-002 1.74134851e-001
      2.40861118e-001 8.88656601e-002 2.28995875e-001 2.56320447e-001
      2.56320447e-001 2.11360857e-001 1.02960445e-001 1.17722794e-001
      1.30799845e-001 1.48399457e-001 1.44271865e-001 1.37107506e-001
      1.87301889e-001 2.20524356e-001 1.76659465e-001 1.60624877e-001
      1.07671283e-001 1.54659614e-001 1.32077828e-001 1.33858904e-001
      1.89017937e-001 1.07423477e-001 1.45722598e-001 1.11359760e-001
      2.20524356e-001 2.20524356e-001 1.41847864e-001 2.20524356e-001
      1.86578497e-001 2.20524356e-001 2.20524356e-001 2.20524356e-001
      2.20524356e-001 2.06383288e-001 1.39157221e-001 8.70075151e-002
      1.17181033e-001 1.62340775e-001 1.12455904e-001 1.10637121e-001
      1.07620142e-001 1.22981273e-001 1.96183622e-001 1.77497849e-001
      4.92607504e-002 4.13459279e-002 5.74203320e-002 2.12214291e-001
      2.48822674e-001 2.48822674e-001 7.96933547e-002 7.39613026e-002
      1.22277535e-001 1.89423323e-001 1.60970524e-001 2.37471774e-001
      1.73286065e-001 2.48822674e-001 1.98210388e-001 7.71620125e-002
      1.59339279e-001 2.48822674e-001 5.34526967e-002 4.65345979e-002
      6.57667294e-002 1.17424004e-001 2.48822674e-001 2.48822674e-001
      1.74850956e-001 1.95291206e-001 8.71684179e-002 1.92522749e-001
      1.68000609e-001 1.93895817e-001 1.24842159e-001 1.06187209e-001
      9.84894037e-002 9.64882374e-002 1.86108798e-001 2.12398037e-001
      2.28433043e-001 2.28433043e-001 1.56034261e-001 2.09816396e-001
      2.28433043e-001 1.93712890e-001 6.49242923e-002 1.35006413e-001
      1.85920611e-001 2.28433043e-001 2.28433043e-001 1.25063434e-001
      2.28433043e-001 2.28433043e-001 1.38903469e-001 1.09102115e-001
      1.62938327e-001 1.91224456e-001 2.11566359e-001 1.81706175e-001
      1.44467413e-001 1.57739505e-001 1.04169890e-001 8.36298838e-002
      7.61510059e-002 1.09577715e-001 1.47794008e-001 1.66203529e-001
      1.76411450e-001 1.14661582e-001 1.35501608e-001 1.77025959e-001
      1.03504248e-001 1.44555867e-001 8.85203928e-002 1.32393196e-001
      1.78424433e-001 2.20599577e-001 1.76115170e-001 2.16732964e-001
      2.20599577e-001 1.22031815e-001 1.81311339e-001 2.17394382e-001
      2.20599577e-001 6.20494448e-002 1.07850626e-001 1.24356300e-001
      1.30758107e-001 2.20599577e-001 1.63440183e-001 1.58785641e-001
      1.77860722e-001 1.34909570e-001 1.74061313e-001 2.04621509e-001
      1.04800485e-001 1.05730914e-001 2.20599577e-001 1.36746868e-001
      2.20599577e-001 8.44344199e-002 1.42426729e-001 1.09839290e-001
      1.05196461e-001 6.70823157e-002 1.03705823e-001 2.20599577e-001
      1.90191537e-001 2.20599577e-001 1.62559077e-001 1.11347966e-001</_>
    <_>
      4.78784405e-002 8.70315805e-002 1.02825627e-001 2.79584646e-001
      2.79584646e-001 1.77226469e-001 1.86601225e-002 3.24270539e-002
      3.42992060e-002 7.02296346e-002 1.95412055e-001 1.66431487e-001
      1.85990840e-001 1.59180835e-001 1.23002186e-001 3.29770967e-002
      3.10708713e-002 5.34326881e-002 6.82257786e-002 6.41492978e-002
      5.87481856e-002 2.79584646e-001 2.79584646e-001 2.79584646e-001
      1.10468715e-001 6.82166964e-002 5.71837127e-002 1.27375066e-001
      2.00030953e-001 1.83270395e-001 2.79584646e-001 2.73915738e-001
      2.79584646e-001 1.47690818e-001 1.14428043e-001 1.12749770e-001
      5.98131754e-002 1.71495810e-001 1.24556981e-001 7.79568702e-002
      1.46306217e-001 1.04514606e-001 1.50275752e-001 5.07134609e-002
      1.56744327e-002 7.94306770e-002 2.15300485e-001 1.71832338e-001
      1.39682248e-001 2.30799556e-001 1.81888968e-001 2.30799556e-001
      1.98248595e-001 2.00432260e-002 1.03930809e-001 2.30799556e-001
      1.89283505e-001 1.89754292e-001 2.30799556e-001 1.73288792e-001
      1.63610607e-001 6.54736459e-002 3.60536985e-002 9.02904198e-002
      2.30799556e-001 1.56245738e-001 2.30799556e-001 2.30799556e-001
      2.30799556e-001 2.30799556e-001 2.30799556e-001 2.49996744e-002
      4.35052291e-002 1.32719964e-001 2.58857220e-001 1.71908736e-001
      2.08842799e-001 9.96358544e-002 8.86317343e-002 1.18846327e-001
      2.68412996e-002 2.14245226e-002 1.29307374e-001 2.58857220e-001
      2.58857220e-001 2.58857220e-001 7.29297474e-002 1.68044269e-002
      1.36094661e-002 2.20774747e-002 6.69450238e-002 1.08100154e-001
      1.61621362e-001 2.08725408e-001 2.57430583e-001 2.08421573e-001
      1.54103339e-001 2.18404979e-001 5.28014600e-002 6.72837645e-002
      1.10664546e-001 2.58857220e-001 2.58857220e-001 2.58857220e-001
      2.58857220e-001 1.44469485e-001 5.51247708e-002 4.59878258e-002
      9.68596935e-002 5.63927554e-002 7.74318650e-002 8.84020329e-002
      2.22411796e-001 2.51161426e-001 1.58158064e-001 1.07632503e-001
      3.43633965e-002 1.33978918e-001 1.40276387e-001 1.18494317e-001
      1.24916621e-001 1.71596587e-001 2.51161426e-001 2.27621973e-001
      1.49362072e-001 7.16174394e-002 7.18012378e-002 4.86256778e-002
      5.20732962e-002 1.27842426e-001 2.50788122e-001 2.51161426e-001
      2.51161426e-001 1.42519742e-001 4.08847667e-002 1.87243536e-001
      1.42044500e-001 9.57852304e-002 2.15661049e-001 2.51161426e-001
      2.51161426e-001 2.51161426e-001 2.02703640e-001 5.35254255e-002
      7.29237795e-002 1.56699523e-001 1.36078805e-001 9.81617048e-002
      1.85772523e-001 1.79433122e-001 2.62945503e-001 9.05544311e-002
      4.16432843e-002 2.58237980e-002 8.17978457e-002 1.00953169e-001
      1.77569687e-001 2.71098822e-001 2.71098822e-001 2.02135012e-001
      5.79301417e-002 1.80717856e-002 1.31879061e-001 9.47719887e-002
      8.59078914e-002 1.25580564e-001 1.35100529e-001 2.71098822e-001
      2.71098822e-001 1.45449370e-001 4.69921641e-002 5.43363914e-002
      5.53975068e-002 9.96452346e-002 2.71098822e-001 2.71098822e-001
      2.71098822e-001 2.71098822e-001 4.54603583e-002 5.24151474e-002
      5.32201231e-002 5.42013198e-002 9.08839256e-002 1.97655171e-001
      2.39048496e-001 2.32748955e-001 9.99081060e-002 6.31167591e-002
      2.99575943e-002 6.34815693e-002 7.00561851e-002 2.85181642e-001
      2.87173331e-001 2.87173331e-001 2.10386813e-001 1.41074717e-001
      3.35155092e-002 2.87454780e-002 7.43440464e-002 8.66915882e-002
      1.06760509e-001 2.87173331e-001 2.76469499e-001 1.93748176e-001
      4.54382300e-002 2.08438877e-002 6.65076748e-002 5.72930425e-002
      1.00295827e-001 2.56420702e-001 2.87173331e-001 2.87173331e-001
      1.14455923e-001 8.80273059e-002 4.96218130e-002 3.72774974e-002
      1.71036460e-002 1.33076534e-002 2.82693207e-002 1.00357771e-001
      1.34257793e-001 1.19113415e-001 9.50964242e-002 4.08921726e-002
      1.89052727e-002 1.26352832e-001 4.49306965e-002 7.49087185e-002
      2.16219038e-001 2.92796493e-001 2.92796493e-001 2.92796493e-001
      1.24839775e-001 4.26003188e-002 1.77253917e-001 8.15662891e-002
      1.30805627e-001 7.70870298e-002 1.40682817e-001 1.27225921e-001
      1.70739084e-001 6.19004928e-002 1.48559973e-001 1.44749627e-001
      2.64316142e-001 2.92796493e-001 2.39837617e-001 2.92796493e-001
      2.92796493e-001 1.58792242e-001 1.10366784e-001 4.93335910e-002
      9.22363251e-002 4.22578231e-002 7.47909322e-002 2.12692797e-001
      1.92840919e-001 2.47643113e-001 2.13061735e-001 4.90165502e-002
      2.64771357e-002 5.08364700e-002 6.66838959e-002 8.15441236e-002
      2.47643113e-001 1.46384776e-001 2.12637290e-001 1.19045399e-001
      1.63705479e-002 5.73075376e-002 1.17868505e-001 1.25972286e-001
      2.47643113e-001 2.47643113e-001 2.47643113e-001 2.47643113e-001
      1.45257577e-001 5.88199012e-002 5.70285730e-002 2.37564206e-001
      1.75979465e-001 2.47643113e-001 2.47643113e-001 2.47643113e-001
      1.58323169e-001 1.41742334e-001 3.05911005e-002 9.82314646e-002
      3.50236781e-002 7.93314353e-002 1.52206704e-001 2.69863635e-001
      2.34910771e-001 1.07373349e-001 4.39330228e-002 2.09788326e-002
      8.44197497e-002 1.05099073e-002 8.49946290e-002 2.69863635e-001
      2.69863635e-001 2.69863635e-001 8.55079070e-002 6.72938377e-002
      3.16356793e-002 1.96538847e-002 1.84139609e-001 1.52010292e-001
      2.62082219e-001 2.69863635e-001 2.69863635e-001 1.21752076e-001
      1.28070533e-001 1.90414116e-002 7.06105381e-002 3.11065954e-003
      4.63186614e-002 2.69863635e-001 2.69863635e-001 2.69863635e-001
      1.59127057e-001 1.56891659e-001 5.61027089e-003 3.04518291e-003</_>
    <_>
      1.18893430e-001 1.07820436e-001 9.56484824e-002 1.01807766e-001
      1.23001710e-001 1.39013216e-001 1.69886634e-001 1.18275046e-001
      3.10718138e-002 1.65668264e-001 2.15259984e-001 2.35342160e-001
      2.14704528e-001 2.50027955e-001 1.94470048e-001 2.50027955e-001
      9.37856808e-002 6.19622879e-002 1.11708872e-001 1.18519902e-001
      1.92643642e-001 2.10058942e-001 1.72079831e-001 8.01721066e-002
      1.28959790e-001 1.04860090e-001 5.90506904e-002 1.82824448e-001
      1.73748448e-001 2.50027955e-001 2.50027955e-001 2.50027955e-001
      1.64715126e-001 1.93967417e-001 1.32970452e-001 1.21257231e-001
      8.08155909e-002 1.03305392e-001 2.21270487e-001 1.74729064e-001
      2.21270487e-001 9.59105715e-002 1.97654635e-001 7.45301992e-002
      8.09017792e-002 7.60493129e-002 9.55644473e-002 1.95753738e-001
      2.06690684e-001 2.21270487e-001 8.45862776e-002 1.92523122e-001
      8.09954554e-002 1.02531970e-001 2.21270487e-001 9.11360756e-002
      2.09123716e-001 2.20919505e-001 1.27642050e-001 1.08605593e-001
      1.23434745e-001 1.57317355e-001 2.21270487e-001 2.13953212e-001
      2.06982613e-001 1.26972541e-001 1.75859630e-001 1.82633936e-001
      1.30432189e-001 1.86451465e-001 2.21270487e-001 2.21270487e-001
      9.88602042e-002 1.21200211e-001 8.85763839e-002 1.70460895e-001
      2.27110058e-001 7.00590387e-002 1.43305555e-001 9.58787128e-002
      1.01808004e-001 1.39851168e-001 1.92560777e-001 1.03489332e-001
      2.27110058e-001 2.27110058e-001 1.04130208e-001 1.08472019e-001
      1.04916841e-001 1.07661016e-001 1.31940201e-001 2.27110058e-001
      9.98543054e-002 1.98223829e-001 1.59842849e-001 1.81000456e-001
      1.99501023e-001 2.27110058e-001 1.60628602e-001 2.02328518e-001
      2.27110058e-001 1.63839161e-001 2.27110058e-001 2.21247986e-001
      2.27110058e-001 1.36494294e-001 1.46210417e-001 1.37298629e-001
      9.08608139e-002 1.33853391e-001 1.85462072e-001 1.62342370e-001
      1.63578525e-001 8.70068595e-002 8.20516869e-002 4.51097377e-002
      1.55782700e-001 9.98440385e-002 7.36755207e-002 2.62140989e-001
      2.62140989e-001 2.62140989e-001 1.80863395e-001 1.65560007e-001
      7.69261271e-002 8.09550732e-002 8.01819414e-002 1.44628733e-001
      1.44093648e-001 8.62950236e-002 1.92649245e-001 1.49745613e-001
      1.10953160e-001 4.54083942e-002 2.04956695e-001 6.35246485e-002
      9.61460918e-002 2.25539967e-001 2.13282749e-001 2.62140989e-001
      2.62140989e-001 2.62140989e-001 1.42950609e-001 2.03100309e-001
      1.89277247e-001 5.70955612e-002 2.26429343e-001 2.29597121e-001
      1.42360643e-001 9.23326686e-002 1.04808703e-001 1.21302053e-001
      1.40335172e-001 1.81413725e-001 1.64299294e-001 7.97068328e-002
      9.64805335e-002 1.77786991e-001 1.79326847e-001 1.54573858e-001
      2.29597121e-001 2.08271563e-001 1.32625267e-001 1.03226237e-001
      1.09275535e-001 1.10542804e-001 1.46377638e-001 1.78820938e-001
      2.29597121e-001 1.63852662e-001 2.29597121e-001 2.29597121e-001
      1.77747771e-001 1.22117005e-001 1.23494692e-001 2.29597121e-001
      1.72791511e-001 1.16300009e-001 1.40569985e-001 2.29597121e-001
      6.43152595e-002 1.86047316e-001 7.51832351e-002 1.24843128e-001
      1.26219943e-001 1.59367025e-001 9.94614363e-002 1.55956253e-001
      6.91775903e-002 1.28923386e-001 2.50390559e-001 1.65732458e-001
      2.28629664e-001 1.33182585e-001 1.59042075e-001 6.51269183e-002
      9.88524854e-002 1.24471948e-001 7.69035742e-002 2.50390559e-001
      2.14896247e-001 2.50390559e-001 2.50390559e-001 1.43887401e-001
      4.99672741e-002 6.33213371e-002 7.91774318e-002 8.20519775e-002
      2.50390559e-001 2.50390559e-001 2.50390559e-001 2.50390559e-001
      1.88751265e-001 1.31805152e-001 1.92501530e-001 6.59918040e-002
      9.18939263e-002 1.13758482e-001 1.08488031e-001 9.12982076e-002
      1.35474488e-001 1.14782520e-001 7.93758035e-002 6.26593009e-002
      1.47592023e-001 1.28338367e-001 1.72263280e-001 1.11682095e-001
      6.38222471e-002 1.43513441e-001 2.23411724e-001 2.23411724e-001
      1.37983128e-001 2.23411724e-001 2.00741842e-001 9.85640585e-002
      1.52188689e-001 2.23411724e-001 2.05619127e-001 1.41920567e-001
      1.58099070e-001 1.75550461e-001 2.23411724e-001 1.78909287e-001
      2.23411724e-001 2.23411724e-001 2.23411724e-001 2.12539852e-001
      1.74488172e-001 1.58368528e-001 1.30690172e-001 2.23411724e-001
      1.24564730e-001 1.32595524e-001 9.39477980e-002 3.19453739e-002
      9.62783173e-002 1.25076681e-001 2.33343467e-001 1.46845609e-001
      2.44630679e-001 2.33673781e-001 1.55572206e-001 9.52999741e-002
      1.31457761e-001 2.44630679e-001 1.11184165e-001 1.54650077e-001
      1.44495770e-001 2.44630679e-001 4.54181731e-002 1.32793352e-001
      2.32046694e-001 2.44630679e-001 2.41497621e-001 1.04429580e-001
      1.37114331e-001 8.24072585e-002 1.18212603e-001 9.38934386e-002
      1.25504777e-001 2.44630679e-001 2.44630679e-001 2.44630679e-001
      1.41792983e-001 1.46403298e-001 5.26600182e-002 1.45717949e-001
      7.04717040e-002 1.30331606e-001 1.19776934e-001 2.40112171e-001
      3.07519227e-001 7.99382925e-002 5.34109697e-002 5.78712821e-002
      9.10474733e-002 1.26870656e-002 1.07492596e-001 2.52155006e-001
      3.07519227e-001 3.07519227e-001 1.74967825e-001 9.85602364e-002
      8.79378989e-002 1.09531581e-002 4.25657779e-002 4.83708344e-002
      1.22262977e-001 3.07519227e-001 3.07519227e-001 1.01502098e-001
      5.04537001e-002 2.38797292e-002 3.78100574e-002 6.80722296e-003
      8.55787937e-003 1.09387837e-001 3.07519227e-001 3.07519227e-001
      2.21051037e-001 3.90816033e-002 1.27698844e-002 7.07698334e-003</_>
    <_>
      1.10351555e-001 1.31884187e-001 1.05384097e-001 1.39652014e-001
      1.59898758e-001 9.94916409e-002 2.73111202e-002 7.71784857e-002
      8.11267421e-002 2.03297347e-001 2.05999300e-001 2.33947426e-001
      1.57423705e-001 2.40589172e-001 2.26025984e-001 5.77525571e-002
      1.57082677e-001 2.19091967e-001 1.14639685e-001 1.31264880e-001
      1.18605159e-001 1.53384253e-001 1.72874555e-001 1.62356004e-001
      6.95675611e-002 8.27599689e-002 1.42672032e-001 1.87220246e-001
      2.40589172e-001 2.40589172e-001 2.40589172e-001 2.40589172e-001
      2.16372833e-001 4.85441461e-002 1.02506228e-001 2.40589172e-001
      1.82165235e-001 1.64415970e-001 1.32532254e-001 9.62058306e-002
      1.85044557e-001 1.49403170e-001 1.30713701e-001 1.77329540e-001
      2.23451957e-001 1.95508510e-001 9.76686850e-002 7.97469541e-002
      8.10190514e-002 1.86577559e-001 1.22408554e-001 2.42697477e-001
      2.42697477e-001 1.66537121e-001 1.10946611e-001 1.76368684e-001
      2.42697477e-001 1.68097228e-001 1.95418045e-001 1.09336495e-001
      1.46189362e-001 1.18013404e-001 1.65199295e-001 1.18475258e-001
      1.15167707e-001 8.13254118e-002 1.03219651e-001 2.42697477e-001
      1.55973852e-001 2.42697477e-001 2.42697477e-001 1.02878183e-001
      1.58053696e-001 6.65725246e-002 6.73187301e-002 1.07991852e-001
      1.53994411e-001 2.00753942e-001 1.94560841e-001 2.07072750e-001
      8.40126351e-002 1.46589503e-001 6.47120625e-002 3.75605188e-002
      9.70030650e-002 1.03060201e-001 2.32844397e-001 2.32844397e-001
      1.34340107e-001 1.27393678e-001 1.39091894e-001 1.01180717e-001
      9.70719531e-002 2.30523959e-001 2.32844397e-001 2.32844397e-001
      2.32844397e-001 2.32844397e-001 3.97323109e-002 1.61916882e-001
      6.81939647e-002 9.31593031e-002 2.32844397e-001 2.29047075e-001
      2.32844397e-001 2.32844397e-001 1.65172368e-001 1.33782536e-001
      1.01714753e-001 1.00247987e-001 7.96135664e-002 1.43619865e-001
      1.83140308e-001 1.40905142e-001 9.44149122e-002 7.83811584e-002
      1.28546074e-001 1.06273167e-001 2.25889951e-001 2.25889951e-001
      2.25889951e-001 2.25889951e-001 1.48926511e-001 1.19112946e-001
      8.01118314e-002 2.25889951e-001 1.46486372e-001 1.51665971e-001
      5.63008524e-002 1.32520571e-001 2.25889951e-001 2.25889951e-001
      1.81732684e-001 1.08616479e-001 1.37745723e-001 1.22478127e-001
      2.25889951e-001 9.24620554e-002 2.22121775e-001 1.98458165e-001
      2.22761422e-001 2.25889951e-001 1.56350061e-001 1.91723019e-001
      4.64770198e-002 1.32978261e-001 1.99091941e-001 1.99416369e-001
      2.13138893e-001 1.30417168e-001 1.70598686e-001 9.97705534e-002
      1.50634199e-001 6.83609769e-002 6.45402893e-002 4.67528515e-002
      8.94791409e-002 2.45666653e-001 2.02149093e-001 2.45666653e-001
      2.38365948e-001 6.63947240e-002 5.34243844e-002 1.18557937e-001
      5.62032312e-002 1.53232604e-001 2.44824782e-001 2.45666653e-001
      2.45666653e-001 1.63495809e-001 1.74615875e-001 7.76313767e-002
      3.52968834e-002 5.39428294e-002 1.51882976e-001 2.45666653e-001
      2.45666653e-001 2.45666653e-001 1.45984277e-001 1.23502411e-001
      1.06196329e-001 7.82108307e-002 4.56021503e-002 1.48857832e-001
      2.26011977e-001 2.17420086e-001 2.26011977e-001 2.12643430e-001
      3.31257246e-002 1.32968515e-001 5.87978549e-002 6.03559166e-002
      1.75897300e-001 2.01851413e-001 2.26011977e-001 2.26011977e-001
      1.56414047e-001 1.67528972e-001 1.22372858e-001 5.66263273e-002
      6.86905757e-002 1.85041308e-001 2.10248664e-001 1.74257904e-001
      2.26011977e-001 1.72166035e-001 9.80933830e-002 2.26011977e-001
      9.29081738e-002 1.10478841e-001 2.26011977e-001 1.50340393e-001
      1.38353497e-001 2.20415115e-001 1.50787532e-001 2.26011977e-001
      1.19898982e-001 1.17453046e-001 2.91683264e-002 1.02623850e-001
      2.18425870e-001 2.37411290e-001 1.86334446e-001 8.68380666e-002
      1.08549535e-001 1.10445298e-001 1.82690740e-001 7.07074106e-002
      1.00641392e-001 1.27541274e-001 1.87880903e-001 1.53908283e-001
      1.10625669e-001 1.76379904e-001 1.29847601e-001 1.51351407e-001
      8.88509080e-002 2.29477197e-001 2.37411290e-001 2.37411290e-001
      1.83116704e-001 1.83905944e-001 1.52665913e-001 2.37411290e-001
      2.37411290e-001 1.07760698e-001 8.42922032e-002 1.82666317e-001
      2.36974955e-001 1.62885293e-001 1.56950951e-001 2.11675018e-001
      7.87713379e-002 1.06090404e-001 8.26251358e-002 1.01232819e-001
      2.24936247e-001 2.24936247e-001 2.24936247e-001 1.19158611e-001
      2.24936247e-001 6.89360276e-002 7.07845986e-002 7.47644752e-002
      1.53859749e-001 2.17920542e-001 2.02037737e-001 1.88304558e-001
      7.44048730e-002 1.38833538e-001 1.68241769e-001 1.49554670e-001
      1.62890688e-001 2.24936247e-001 2.24936247e-001 2.24936247e-001
      2.24936247e-001 9.21844095e-002 1.95661530e-001 5.73678203e-002
      7.22295642e-002 1.48795351e-001 2.24936247e-001 2.24936247e-001
      2.24936247e-001 1.79819971e-001 8.34474117e-002 1.04506783e-001
      8.21807534e-002 1.17185637e-001 9.51146185e-002 2.27329820e-001
      2.21946627e-001 1.48427576e-001 1.70388505e-001 1.32866025e-001
      8.29272345e-002 1.54096186e-001 1.50139108e-001 1.10648997e-001
      2.36150011e-001 1.88007027e-001 1.42276898e-001 2.36150011e-001
      1.98276177e-001 1.70246154e-001 4.38130982e-002 9.27490965e-002
      8.91618207e-002 1.37995347e-001 2.36150011e-001 2.36150011e-001
      1.70434594e-001 1.49211466e-001 3.40651236e-002 5.68873584e-002
      1.26098752e-001 9.73503813e-002 1.86257660e-001 2.36150011e-001
      2.36150011e-001 2.36150011e-001 2.36150011e-001 9.86398757e-002</_>
    <_>
      6.02478944e-002 7.92326182e-002 1.13891512e-001 1.78337708e-001
      2.38753676e-001 1.68061912e-001 8.44393373e-002 1.13057517e-001
      8.71454701e-002 1.30378276e-001 1.94074556e-001 8.21219608e-002
      1.36890158e-001 1.86459348e-001 8.94710645e-002 7.92268291e-002
      1.23978876e-001 1.24280706e-001 7.71628693e-002 1.09245919e-001
      2.38753676e-001 2.29969323e-001 2.38753676e-001 1.78613260e-001
      1.12824939e-001 1.35681003e-001 1.06813937e-001 2.38753676e-001
      2.38753676e-001 2.38753676e-001 2.11792678e-001 2.38753676e-001
      2.31312066e-001 1.11559510e-001 1.77158460e-001 2.01809362e-001
      1.19351715e-001 1.33946225e-001 4.03964147e-002 8.12287703e-002
      1.58520773e-001 7.92183280e-002 5.18998913e-002 6.24855533e-002
      6.31155446e-002 1.18368708e-001 1.02893263e-001 7.58233219e-002
      6.02827519e-002 2.00682133e-001 1.11085229e-001 1.14865080e-001
      4.37750146e-002 8.49995315e-002 2.51810879e-001 2.51810879e-001
      2.51810879e-001 1.73732400e-001 2.51810879e-001 2.51810879e-001
      6.74515367e-002 6.93048090e-002 1.58077151e-001 2.51810879e-001
      2.10542589e-001 2.21725032e-001 1.73011735e-001 2.51810879e-001
      2.51810879e-001 1.97444409e-001 9.24177244e-002 2.51810879e-001
      1.44302547e-001 9.47149023e-002 1.04044273e-001 6.28369749e-002
      2.10865840e-001 1.40217051e-001 1.35696396e-001 1.28911644e-001
      1.00778654e-001 2.06903517e-001 1.26798794e-001 1.70611545e-001
      8.59863162e-002 1.04392603e-001 1.35987431e-001 1.22553460e-001
      2.19577700e-001 1.49845615e-001 2.19577700e-001 8.54003802e-002
      1.23512439e-001 1.66011065e-001 2.13134512e-001 2.19577700e-001
      2.15528473e-001 2.12888524e-001 2.19577700e-001 1.89433828e-001
      1.64112881e-001 2.09536880e-001 1.91604063e-001 1.65585101e-001
      1.29992381e-001 1.31623551e-001 2.19577700e-001 2.19577700e-001
      5.56157120e-002 4.18390147e-002 1.71004698e-001 1.32377371e-001
      1.92954898e-001 1.07798889e-001 9.26888213e-002 1.04268201e-001
      6.03173673e-002 1.48280233e-001 1.25513196e-001 2.48592213e-001
      2.42806762e-001 2.48592213e-001 2.38059014e-001 1.60342321e-001
      1.85412928e-001 1.14701480e-001 5.74532449e-002 1.21432915e-001
      1.79309145e-001 1.18749879e-001 1.64246365e-001 1.18226655e-001
      8.62608999e-002 8.43513682e-002 5.03705107e-002 9.74529982e-002
      1.60317719e-001 2.48592213e-001 1.89212650e-001 2.48592213e-001
      2.48592213e-001 2.48592213e-001 2.48592213e-001 1.46306708e-001
      1.08840972e-001 1.19481698e-001 2.27116808e-001 1.28923967e-001
      1.80335477e-001 2.10803509e-001 1.13795705e-001 1.12549879e-001
      7.99276009e-002 1.45574629e-001 7.15911463e-002 1.94718659e-001
      1.88469753e-001 1.82906479e-001 2.27116808e-001 1.28310934e-001
      7.40574375e-002 1.47822216e-001 8.83271769e-002 1.42965823e-001
      2.27116808e-001 1.05829746e-001 2.15011299e-001 2.27116808e-001
      2.27116808e-001 2.27116808e-001 1.24014616e-001 1.17081329e-001
      1.64376304e-001 2.27116808e-001 2.27116808e-001 2.27116808e-001
      1.58605531e-001 1.08573787e-001 1.01491310e-001 1.25512809e-001
      1.64716199e-001 5.73984385e-002 2.35393614e-001 2.45214745e-001
      2.45214745e-001 2.45214745e-001 1.45257950e-001 1.39177591e-001
      2.05785468e-001 1.21705256e-001 1.17445685e-001 1.14152178e-001
      1.17997497e-001 1.29800037e-001 1.28190175e-001 1.01101309e-001
      1.93493173e-001 1.64720193e-001 1.36513203e-001 1.41930088e-001
      2.45214745e-001 2.45214745e-001 2.45214745e-001 1.99477822e-001
      8.30589011e-002 7.62052611e-002 1.33530349e-001 1.85850829e-001
      7.34894350e-002 1.27374291e-001 9.14791524e-002 1.59248039e-001
      1.58171445e-001 1.52871579e-001 1.41031340e-001 1.92873091e-001
      8.36692005e-002 1.75040200e-001 1.90957829e-001 9.23892930e-002
      1.32191241e-001 1.44096434e-001 1.30936235e-001 1.47471815e-001
      5.95147163e-002 1.00267872e-001 1.71186298e-001 2.21562698e-001
      1.18602566e-001 2.21562698e-001 2.21562698e-001 2.21562698e-001
      2.21562698e-001 2.08175793e-001 7.26612434e-002 1.80070400e-001
      1.47680640e-001 2.21562698e-001 2.18255237e-001 1.23384632e-001
      1.98585287e-001 2.08018109e-001 8.45911950e-002 6.50088042e-002
      1.67574704e-001 1.53555825e-001 2.05863521e-001 1.18754327e-001
      1.19386174e-001 1.67461395e-001 2.02336594e-001 1.87956780e-001
      2.01467708e-001 1.93183437e-001 1.85045123e-001 8.76639113e-002
      1.49206072e-001 2.09966734e-001 2.31807515e-001 2.31807515e-001
      2.31807515e-001 2.31807515e-001 2.31807515e-001 2.31807515e-001
      2.31807515e-001 1.98154315e-001 1.49522901e-001 1.35453075e-001
      1.67064771e-001 2.31807515e-001 1.06682919e-001 1.00814722e-001
      6.12402968e-002 8.07856321e-002 4.46601398e-002 6.44961074e-002
      1.00982666e-001 1.97013140e-001 1.83073357e-001 1.60119265e-001
      1.21783428e-001 5.39622530e-002 8.38521495e-002 9.82461497e-002
      1.34933412e-001 1.16614975e-001 1.64577559e-001 1.85150728e-001
      1.65896893e-001 1.85984179e-001 2.20540151e-001 2.20540151e-001
      2.20540151e-001 1.97044089e-001 1.10385269e-001 8.24039280e-002
      1.40738100e-001 2.13743314e-001 6.99268878e-002 9.93053839e-002
      9.64078754e-002 2.03905329e-001 1.35009900e-001 2.17122734e-001
      1.74189031e-001 1.85120612e-001 1.56403854e-001 1.41456679e-001
      7.56052136e-002 8.40313658e-002 2.20540151e-001 2.17757359e-001
      1.76441580e-001 1.15366332e-001 1.12354174e-001 2.20540151e-001
      1.05808601e-001 7.08640814e-002 1.07733935e-001 2.20540151e-001
      1.66708559e-001 2.20540151e-001 1.48381546e-001 1.92232922e-001</_>
    <_>
      1.18012503e-001 1.39452368e-001 1.38921797e-001 8.50517303e-002
      1.64359316e-001 9.91435274e-002 1.15779281e-001 1.06693931e-001
      1.07072763e-001 1.56088099e-001 2.23207310e-001 2.23207310e-001
      1.50667116e-001 1.37419000e-001 1.37295753e-001 1.25719011e-001
      2.10221544e-001 1.04971275e-001 1.77797318e-001 1.83398023e-001
      1.35765806e-001 1.37203828e-001 2.23207310e-001 2.20625401e-001
      1.61284998e-001 1.14921495e-001 1.70745045e-001 1.56293631e-001
      2.04009116e-001 1.93049029e-001 2.23207310e-001 2.23207310e-001
      2.23207310e-001 1.64640009e-001 1.84949473e-001 1.60748333e-001
      1.19813778e-001 2.21893340e-001 1.40343145e-001 1.08701646e-001
      1.12865150e-001 1.17884472e-001 1.17567316e-001 2.21893340e-001
      8.23208392e-002 1.38602450e-001 2.21893340e-001 1.49671361e-001
      1.29691809e-001 1.74873784e-001 1.95544600e-001 1.26356974e-001
      1.65770441e-001 8.82072151e-002 9.37174857e-002 1.70986995e-001
      1.12852350e-001 1.72087297e-001 1.67782530e-001 1.89169660e-001
      1.33764148e-001 2.21893340e-001 1.34349108e-001 1.35362208e-001
      2.21893340e-001 1.71593636e-001 1.48372114e-001 2.21893340e-001
      2.21893340e-001 1.81780398e-001 2.21893340e-001 2.21893340e-001
      1.12258814e-001 1.69619977e-001 1.28779396e-001 8.76941234e-002
      1.70211941e-001 1.49151176e-001 1.23624064e-001 1.11129858e-001
      9.16506723e-002 7.51723051e-002 1.11091241e-001 7.00061470e-002
      1.04302235e-001 1.62654832e-001 1.59678847e-001 1.59454808e-001
      8.28021392e-002 1.17046371e-001 1.69974312e-001 1.85669646e-001
      2.26381853e-001 2.27057770e-001 2.27057770e-001 2.15926602e-001
      1.78146690e-001 2.27057770e-001 2.27057770e-001 1.65944740e-001
      9.44854170e-002 1.38882130e-001 2.27057770e-001 2.27057770e-001
      1.77109897e-001 2.27057770e-001 1.43484920e-001 2.27057770e-001
      1.28202200e-001 1.26444012e-001 5.76744899e-002 1.48978531e-001
      2.48856068e-001 1.44707546e-001 1.13726377e-001 8.82403553e-002
      1.18744180e-001 5.76382466e-002 1.12848535e-001 4.66693416e-002
      2.54867524e-001 2.54867524e-001 2.54867524e-001 1.59091562e-001
      6.71504065e-002 9.36616063e-002 2.31519401e-001 1.10149361e-001
      8.17197561e-002 1.49448499e-001 2.54867524e-001 2.20137164e-001
      1.59400046e-001 1.02886260e-001 7.40047395e-002 9.56465155e-002
      8.40358734e-002 2.89963651e-002 2.54867524e-001 2.54867524e-001
      2.54867524e-001 2.54867524e-001 1.98619232e-001 6.44446537e-002
      4.51365411e-002 7.46707395e-002 5.93104661e-002 1.75597072e-001
      2.01966435e-001 1.41990677e-001 1.17358580e-001 9.79030505e-002
      1.14472002e-001 9.24277008e-002 9.42505077e-002 9.64522436e-002
      1.62528768e-001 2.36949548e-001 2.36949548e-001 1.68283120e-001
      2.36949548e-001 2.34357223e-001 5.12431078e-002 4.31503542e-002
      3.10170688e-002 2.06097186e-001 2.36949548e-001 1.77882150e-001
      2.36949548e-001 1.70755729e-001 6.22835904e-002 1.36253685e-001
      1.33936673e-001 2.23134473e-001 2.36949548e-001 2.36949548e-001
      2.36949548e-001 2.13994145e-001 1.54282287e-001 6.48911372e-002
      1.31519735e-001 9.21224505e-002 1.12230852e-001 2.21712559e-001
      2.23789915e-001 1.97685912e-001 1.46725267e-001 1.22336313e-001
      2.06063211e-001 1.51616171e-001 9.59583446e-002 9.54093710e-002
      1.71915770e-001 2.23789915e-001 1.62641659e-001 1.74449190e-001
      1.05496109e-001 2.07383811e-001 1.74728051e-001 1.34496406e-001
      2.23789915e-001 2.23789915e-001 2.23789915e-001 1.58233210e-001
      1.95174828e-001 1.35402590e-001 9.88182947e-002 1.65123448e-001
      1.18639641e-001 1.32801980e-001 1.84547246e-001 1.77722692e-001
      1.79289430e-001 1.60704866e-001 1.30014613e-001 1.43392622e-001
      1.89204112e-001 7.03054368e-002 7.43721649e-002 8.96581113e-002
      2.45264053e-001 2.45264053e-001 1.98245108e-001 1.05487756e-001
      6.58810586e-002 7.64866620e-002 6.56542182e-002 5.13428152e-002
      1.87700033e-001 2.45264053e-001 2.45264053e-001 2.45264053e-001
      2.45264053e-001 1.18339770e-001 8.65236595e-002 6.88605979e-002
      7.71232545e-002 1.00058466e-001 2.26486608e-001 1.55727461e-001
      1.44410387e-001 1.19914331e-001 1.01890363e-001 8.80933180e-002
      1.81098029e-001 1.35112077e-001 1.78113475e-001 2.45264053e-001
      2.25172579e-001 2.45264053e-001 2.20736995e-001 7.67205954e-002
      1.19168103e-001 9.93672237e-002 6.36079535e-002 1.01179577e-001
      1.41142592e-001 1.30335793e-001 2.31795549e-001 2.31795549e-001
      1.01838417e-001 2.31795549e-001 2.31795549e-001 2.31795549e-001
      1.66529715e-001 1.34801120e-001 1.08213767e-001 2.04238325e-001
      1.55708477e-001 1.04173906e-001 1.42654523e-001 2.27628112e-001
      1.56012043e-001 6.77226484e-002 1.00017861e-001 9.00873244e-002
      2.31795549e-001 2.06135616e-001 7.74810389e-002 2.31795549e-001
      2.28180707e-001 2.31795549e-001 6.56935647e-002 6.89162984e-002
      8.19991082e-002 2.29152501e-001 1.24202140e-001 2.10451469e-001
      2.39807054e-001 2.39807054e-001 2.39807054e-001 2.39807054e-001
      1.94875196e-001 1.09446250e-001 1.50514543e-001 1.33979708e-001
      1.03713758e-001 2.15301231e-001 1.17031470e-001 2.39807054e-001
      2.01132178e-001 1.19556658e-001 1.26021668e-001 1.12951651e-001
      1.30944118e-001 1.16750106e-001 2.39807054e-001 1.71398535e-001
      2.39807054e-001 9.76211876e-002 7.60707036e-002 9.48218852e-002
      1.82141498e-001 1.41642973e-001 2.34092832e-001 2.15756774e-001
      1.07670814e-001 1.71926796e-001 8.66512209e-002 8.01943168e-002
      1.11798517e-001 1.25072867e-001 1.22429460e-001 1.14118092e-001</_>
    <_>
      6.66780695e-002 7.71737099e-002 8.14656839e-002 1.02278575e-001
      2.13546067e-001 2.13987887e-001 2.29410693e-001 1.04974017e-001
      7.03548640e-002 8.43405873e-002 7.22337067e-002 7.31697977e-002
      1.57157332e-001 2.29410693e-001 2.29410693e-001 1.56941280e-001
      8.17854404e-002 9.10333022e-002 1.76569685e-001 9.88374054e-002
      6.61886558e-002 2.21363142e-001 2.29410693e-001 2.29410693e-001
      2.29410693e-001 1.82949007e-001 1.27199993e-001 2.29410693e-001
      1.14172056e-001 1.48381740e-001 2.29410693e-001 2.29410693e-001
      1.64917186e-001 1.33356333e-001 1.82695702e-001 2.23164752e-001
      9.31369737e-002 6.25285953e-002 1.33222923e-001 1.88535020e-001
      1.78468719e-001 1.24103412e-001 1.19503245e-001 7.41006285e-002
      1.76698372e-001 1.58821866e-001 2.04429403e-001 2.35897467e-001
      2.35897467e-001 9.54544917e-002 1.09242760e-001 4.17700708e-002
      9.53630731e-002 1.54457375e-001 1.94755554e-001 5.15239350e-002
      1.74219087e-001 2.35897467e-001 2.35897467e-001 2.16535240e-001
      1.14151500e-001 1.20296851e-001 2.13604331e-001 1.17180079e-001
      1.29272848e-001 2.35897467e-001 2.35897467e-001 2.35897467e-001
      2.35897467e-001 7.78175965e-002 1.35215431e-001 1.40871614e-001
      1.26330420e-001 1.88449025e-001 1.89872593e-001 2.13366985e-001
      1.04936190e-001 1.43592879e-001 7.81638399e-002 1.27927288e-001
      9.79049578e-002 1.32321790e-001 1.17405996e-001 1.35709450e-001
      1.31389782e-001 1.59515038e-001 1.13556765e-001 1.84739888e-001
      1.81140348e-001 1.71486035e-001 1.05628841e-001 1.51453912e-001
      2.13366985e-001 2.13366985e-001 2.13366985e-001 2.13366985e-001
      9.07326564e-002 1.44705787e-001 1.38714641e-001 1.41971737e-001
      2.13366985e-001 1.54645145e-001 2.04906598e-001 2.13366985e-001
      1.85986221e-001 1.79173782e-001 2.13366985e-001 2.13366985e-001
      1.39735311e-001 4.07858416e-002 5.75818755e-002 2.14120388e-001
      2.36422852e-001 1.62878603e-001 8.97716358e-002 1.29683644e-001
      9.93095189e-002 1.80072322e-001 4.69438098e-002 1.84110880e-001
      1.00074969e-001 2.36132592e-001 2.24426612e-001 9.33043510e-002
      1.39683932e-001 1.61761254e-001 1.42390445e-001 1.25363410e-001
      2.36422852e-001 2.36422852e-001 2.01111525e-001 1.60178825e-001
      1.16838120e-001 9.18329731e-002 1.01839900e-001 1.02474086e-001
      8.79790336e-002 2.36422852e-001 1.37394726e-001 2.36422852e-001
      2.36422852e-001 2.36422852e-001 2.22969890e-001 1.19624101e-001
      1.09602086e-001 3.23339924e-002 1.73142388e-001 1.24179497e-001
      2.58311838e-001 1.83081582e-001 7.32417926e-002 4.35890518e-002
      6.69945255e-002 6.62144572e-002 4.32796404e-002 1.02521896e-001
      1.91485032e-001 2.58311838e-001 2.23029181e-001 1.02761008e-001
      5.16366698e-002 6.52718917e-002 5.13636172e-002 3.33185047e-002
      1.95905343e-001 8.86460766e-002 2.58311838e-001 2.58311838e-001
      2.58311838e-001 2.58198708e-001 8.52775201e-002 8.13342407e-002
      9.03798565e-002 1.41482398e-001 1.63394183e-001 2.58311838e-001
      2.50300199e-001 2.58311838e-001 2.03721136e-001 1.27969980e-001
      6.11907095e-002 8.13150257e-002 8.63360316e-002 1.18075140e-001
      1.91669866e-001 1.27288282e-001 1.02070808e-001 1.07824385e-001
      1.33710891e-001 5.84400669e-002 1.20892756e-001 7.62065053e-002
      8.23730007e-002 1.36771008e-001 1.30482197e-001 1.35163829e-001
      1.33597463e-001 1.22515276e-001 1.19405821e-001 1.79707125e-001
      1.87880889e-001 1.58356443e-001 2.59520024e-001 1.73946068e-001
      2.59520024e-001 2.13458702e-001 2.44369239e-001 1.13568269e-001
      1.88912049e-001 2.48193488e-001 1.14091769e-001 2.59520024e-001
      1.64079085e-001 2.59520024e-001 1.61329240e-001 2.59400189e-001
      7.24583939e-002 1.49116859e-001 2.19382331e-001 1.65946931e-001
      1.79092973e-001 1.24966152e-001 1.26181722e-001 4.83821854e-002
      1.36026725e-001 8.98429155e-002 1.33478671e-001 2.19382331e-001
      1.31193355e-001 2.19382331e-001 2.07008213e-001 2.19382331e-001
      1.78117603e-001 1.18947685e-001 1.19019136e-001 1.90569445e-001
      1.25684083e-001 1.11804001e-001 2.19382331e-001 2.05475792e-001
      2.19382331e-001 1.09460473e-001 1.45937383e-001 2.05381587e-001
      1.30612835e-001 1.05957754e-001 7.47343451e-002 2.19382331e-001
      1.75788164e-001 2.19382331e-001 1.79187894e-001 2.19382331e-001
      4.29359488e-002 5.51133044e-002 1.05103113e-001 5.11633791e-002
      1.19279251e-001 2.18298003e-001 2.33715370e-001 2.33715370e-001
      7.01561868e-002 9.51393694e-002 2.05784619e-001 2.33715370e-001
      1.60542056e-001 1.55077338e-001 1.66406766e-001 2.33715370e-001
      2.33715370e-001 1.23121202e-001 1.46008775e-001 1.04192778e-001
      9.05525833e-002 5.33729121e-002 2.13722721e-001 1.69257209e-001
      1.60549223e-001 1.67576209e-001 1.02930397e-001 1.69245213e-001
      1.76761746e-001 1.90135568e-001 1.50465056e-001 2.33715370e-001
      1.82650849e-001 1.90857694e-001 1.84973463e-001 1.89267918e-001
      1.36931777e-001 1.62185341e-001 1.79441512e-001 1.39367044e-001
      2.17485860e-001 5.81291839e-002 2.27051377e-001 1.02956116e-001
      2.07783103e-001 1.77135184e-001 1.22212268e-001 1.80164561e-001
      7.87374526e-002 2.27051377e-001 5.97133636e-002 2.27051377e-001
      9.85471904e-002 2.27051377e-001 1.52857065e-001 1.17075317e-001
      1.98010564e-001 1.85367599e-001 2.27051377e-001 4.38524410e-002
      1.03439249e-001 7.54446238e-002 1.89875066e-001 1.51183724e-001
      6.86828196e-002 2.27051377e-001 1.77060902e-001 2.27051377e-001
      1.27137244e-001 2.27051377e-001 1.13394409e-001 1.81600556e-001</_>
    <_>
      1.86266690e-001 9.55448598e-002 1.20309100e-001 5.34328297e-002
      6.65910691e-002 2.19692811e-001 2.01807767e-001 1.53457731e-001
      1.70197830e-001 5.73472902e-002 5.68082929e-002 7.42114782e-002
      8.46117362e-002 1.93715289e-001 1.68991044e-001 2.19692811e-001
      1.77134961e-001 1.24641910e-001 2.19692811e-001 1.34580642e-001
      2.19122395e-001 9.27028209e-002 1.30641371e-001 2.19692811e-001
      2.19692811e-001 2.19692811e-001 2.15864643e-001 1.63485423e-001
      1.49322376e-001 2.19692811e-001 1.49368972e-001 1.67178735e-001
      1.57939091e-001 2.19692811e-001 1.56752393e-001 1.83003113e-001
      7.46517852e-002 4.34705690e-002 5.98886050e-002 8.49205777e-002
      1.60490096e-001 1.04036495e-001 2.18600795e-001 1.25880927e-001
      7.39586726e-002 2.56513268e-001 1.07804790e-001 1.63142011e-001
      1.21647157e-001 1.49002820e-001 1.57307878e-001 2.56513268e-001
      2.56513268e-001 1.25762403e-001 9.90565047e-002 1.04176737e-001
      1.98607594e-001 1.81899786e-001 2.49017164e-001 8.77354965e-002
      1.72056884e-001 8.09387937e-002 1.21816777e-001 1.83750883e-001
      8.70701224e-002 1.90648735e-001 2.34228060e-001 2.56513268e-001
      2.56513268e-001 2.56513268e-001 7.59758204e-002 1.03311576e-001
      2.36050278e-001 1.32008210e-001 1.92996979e-001 1.41048491e-001
      1.53711602e-001 1.36599734e-001 2.36050278e-001 2.36050278e-001
      1.65952981e-001 1.06233738e-001 4.14051525e-002 7.79745802e-002
      1.13436863e-001 1.26987115e-001 1.23203874e-001 2.09130436e-001
      1.83839232e-001 1.66539013e-001 2.05969408e-001 1.19097985e-001
      1.34601802e-001 2.03048587e-001 2.36050278e-001 2.36050278e-001
      2.36050278e-001 1.30174175e-001 1.14346609e-001 1.32590055e-001
      1.34802982e-001 1.07256755e-001 1.28413036e-001 8.59659612e-002
      1.00988075e-001 2.30620205e-001 2.04656348e-001 1.67413026e-001
      1.06813930e-001 8.61809254e-002 1.73054338e-001 6.48367032e-002
      1.76551595e-001 1.49766520e-001 1.87363893e-001 1.75875366e-001
      1.10538982e-001 1.06127255e-001 1.40634999e-001 2.10103720e-001
      1.39329880e-001 2.10538134e-001 1.18400492e-001 2.11643279e-001
      1.04125202e-001 1.03227057e-001 1.02749012e-001 1.09101385e-001
      1.82195053e-001 1.35653228e-001 2.34645888e-001 1.91715494e-001
      2.34645888e-001 1.83861092e-001 1.22105435e-001 1.45882875e-001
      1.48032501e-001 1.46550983e-001 2.34645888e-001 2.34645888e-001
      2.34645888e-001 2.34645888e-001 1.53832227e-001 1.23938918e-001
      4.97640446e-002 9.64076221e-002 1.98145270e-001 1.83341235e-001
      2.88566917e-001 5.59739433e-002 7.44379461e-002 2.94020139e-002
      7.16375411e-002 3.61053571e-002 6.18130229e-002 1.65722564e-001
      2.13356271e-001 2.88566917e-001 2.18275309e-001 1.21922202e-001
      2.43818089e-002 3.17882225e-002 1.49963483e-001 1.63290948e-001
      1.21034883e-001 2.88566917e-001 2.88566917e-001 1.23446032e-001
      1.08868293e-001 4.89301868e-002 8.48484114e-002 1.15756154e-001
      1.91493437e-001 2.88566917e-001 2.88566917e-001 2.88566917e-001
      8.79956484e-002 6.31746799e-002 3.62430438e-002 9.52678099e-002
      8.56014043e-002 8.51041377e-002 1.19380943e-001 1.77697107e-001
      2.53355712e-001 2.21123621e-001 1.66648954e-001 7.17795640e-002
      5.31086139e-002 1.24006547e-001 1.24254055e-001 1.79391086e-001
      9.83511880e-002 1.20176479e-001 8.84091258e-002 9.46537852e-002
      9.05185342e-002 9.40850973e-002 1.92677394e-001 1.29071921e-001
      2.53355712e-001 2.53355712e-001 2.53355712e-001 1.21713728e-001
      1.69249251e-001 1.25618696e-001 2.16510475e-001 2.33253121e-001
      8.04618970e-002 2.53355712e-001 1.43786535e-001 1.99276984e-001
      1.09747052e-001 1.74769476e-001 1.50346935e-001 2.53355712e-001
      5.93852140e-002 7.04206601e-002 4.93294075e-002 1.29740909e-001
      1.98317632e-001 1.52561516e-001 2.31226131e-001 1.38975069e-001
      8.21570829e-002 8.28556269e-002 6.94103986e-002 5.03265671e-002
      2.00733200e-001 2.31226131e-001 2.24155515e-001 1.68050393e-001
      8.26482177e-002 9.92152765e-002 1.47575140e-001 9.56339538e-002
      5.68748638e-002 2.31226131e-001 2.31226131e-001 2.31226131e-001
      2.31226131e-001 2.14964509e-001 1.07354522e-001 2.31226131e-001
      1.45482689e-001 5.85949942e-002 2.00975999e-001 2.31226131e-001
      2.18530387e-001 1.58775359e-001 1.43385768e-001 2.31226131e-001
      1.11206554e-001 1.02039702e-001 9.87171382e-002 2.08534613e-001
      1.85919642e-001 1.06625400e-001 1.12994529e-001 6.07002191e-002
      1.44079998e-001 1.02652259e-001 2.27048248e-001 2.31778309e-001
      2.31778309e-001 1.39449015e-001 4.73297313e-002 7.94280618e-002
      4.72038798e-002 1.48453966e-001 1.34508654e-001 1.05045803e-001
      1.53138191e-001 1.96200088e-001 2.31778309e-001 2.31778309e-001
      1.57158315e-001 8.90336931e-002 2.31778309e-001 1.20299026e-001
      1.86814666e-001 2.31778309e-001 2.31778309e-001 2.31778309e-001
      2.31778309e-001 1.85082585e-001 7.10936338e-002 1.68241903e-001
      1.22240312e-001 1.50773555e-001 2.17400238e-001 2.17400238e-001
      1.28089309e-001 7.94616342e-002 1.47852898e-001 1.03801169e-001
      1.63511887e-001 1.53305441e-001 2.38209255e-002 1.09418139e-001
      1.16783552e-001 6.98608309e-002 9.86335799e-002 2.11862519e-001
      2.03793034e-001 2.01793000e-001 1.62810341e-001 2.06735179e-001
      2.05910340e-001 2.17400238e-001 2.00868130e-001 1.99367166e-001
      1.25063121e-001 9.23945233e-002 1.79885268e-001 1.73326671e-001
      8.86638835e-002 1.34422109e-001 1.90668866e-001 1.84221625e-001
      1.68856874e-001 2.17400238e-001 2.17400238e-001 2.17400238e-001</_>
    <_>
      5.41771688e-002 5.86137101e-002 1.79976255e-001 2.36931682e-001
      2.36931682e-001 1.96732745e-001 2.06116527e-001 1.04259886e-001
      1.85801014e-001 2.71062981e-002 6.34303764e-002 1.76261634e-001
      2.36931682e-001 2.36931682e-001 1.58266157e-001 8.17971304e-002
      1.71840303e-002 6.65583089e-002 9.54803675e-002 8.13221633e-002
      1.45050123e-001 2.21601903e-001 2.36931682e-001 2.36931682e-001
      2.36931682e-001 1.65526450e-001 1.27705887e-001 5.62587455e-002
      1.31483823e-001 2.36931682e-001 2.36931682e-001 2.36931682e-001
      1.76103562e-001 1.04353629e-001 4.53620255e-002 6.80869073e-002
      8.72010663e-002 1.45893976e-001 1.73133805e-001 2.42036745e-001
      2.07400218e-001 1.68371201e-001 8.52553025e-002 3.16461548e-002
      9.24545377e-002 1.66194186e-001 1.19544223e-001 1.01692460e-001
      1.76239163e-001 2.42036745e-001 1.87066376e-001 1.36437684e-001
      8.86451900e-002 2.11179003e-001 1.29684359e-001 2.42036745e-001
      2.42036745e-001 2.42036745e-001 1.52321413e-001 9.07907337e-002
      5.21897897e-002 5.14822416e-002 1.03338853e-001 2.24953979e-001
      2.05714181e-001 9.47155654e-002 1.12462282e-001 1.12154871e-001
      2.22031087e-001 2.42036745e-001 1.07360587e-001 2.39599079e-001
      1.47042900e-001 9.45996866e-002 9.39215496e-002 1.51654825e-001
      2.66796798e-001 2.19106793e-001 1.73044249e-001 1.47778839e-001
      1.64243832e-001 1.30565822e-001 1.25345647e-001 1.24348976e-001
      1.10572308e-001 2.37549201e-001 1.16029151e-001 1.86334491e-001
      1.92405522e-001 9.18419138e-002 1.34967402e-001 7.30375201e-002
      1.22143373e-001 1.49050504e-001 1.69995576e-001 2.66796798e-001
      2.66796798e-001 1.18579172e-001 1.28226385e-001 1.82869688e-001
      1.13655575e-001 2.10056543e-001 1.66120216e-001 1.61708176e-001
      1.75389841e-001 2.66796798e-001 1.02550454e-001 8.57010782e-002
      1.26530915e-001 1.05172046e-001 1.41098350e-001 2.27173850e-001
      2.27173850e-001 1.90726548e-001 1.15885004e-001 1.64358437e-001
      7.61158317e-002 6.84556440e-002 9.49262828e-002 2.27173850e-001
      2.27173850e-001 2.27173850e-001 1.44106656e-001 5.39285950e-002
      6.08985350e-002 4.57063615e-002 2.27173850e-001 2.25517020e-001
      2.20161945e-001 2.27173850e-001 1.44171402e-001 2.02133566e-001
      2.17426106e-001 1.88800439e-001 7.55137801e-002 1.46736026e-001
      1.21138245e-001 2.27173850e-001 2.27173850e-001 2.27173850e-001
      9.09025520e-002 6.81415275e-002 8.82791430e-002 4.88518812e-002
      9.67269763e-002 1.92529291e-001 2.64496893e-001 2.64496893e-001
      2.46130496e-001 9.84653905e-002 4.02802788e-002 4.22074758e-002
      8.07600319e-002 1.21220700e-001 1.32096663e-001 1.27734125e-001
      1.71351388e-001 8.74515399e-002 1.81085840e-001 2.64496893e-001
      5.09973876e-002 1.28101692e-001 1.01871103e-001 1.14884414e-001
      2.16683403e-001 2.64496893e-001 2.64496893e-001 1.59737006e-001
      8.08968768e-002 7.19455034e-002 1.07328556e-001 8.99528638e-002
      2.64496893e-001 2.64496893e-001 2.64496893e-001 1.06225342e-001
      1.34213313e-001 6.54745325e-002 4.30511758e-002 1.04776457e-001
      4.73321788e-002 4.80344854e-002 1.59200966e-001 2.59971231e-001
      1.83725223e-001 2.59971231e-001 2.59971231e-001 5.27848080e-002
      4.52868752e-002 9.65613201e-002 5.52827679e-002 1.66678920e-001
      2.56887317e-001 2.04209030e-001 2.30244815e-001 2.59971231e-001
      7.17920586e-002 5.34359664e-002 9.62929279e-002 2.18568981e-001
      2.59971231e-001 2.59971231e-001 1.42332330e-001 1.23214662e-001
      6.29323497e-002 2.41705608e-002 3.47306505e-002 1.70732930e-001
      8.78187120e-002 1.66436628e-001 2.59971231e-001 1.86514899e-001
      1.72701806e-001 9.26330537e-002 7.86050558e-002 6.90871626e-002
      2.25487471e-001 2.25487471e-001 2.17069730e-001 2.25487471e-001
      1.43293783e-001 2.24605814e-001 2.25487471e-001 1.30569831e-001
      7.18846768e-002 2.00414926e-001 1.61541462e-001 2.17440993e-001
      2.25487471e-001 2.16931164e-001 9.45669785e-002 1.18135862e-001
      7.74784535e-002 1.14228182e-001 1.19540960e-001 2.25487471e-001
      1.53996199e-001 2.25487471e-001 1.38244256e-001 1.37304947e-001
      1.27454787e-001 8.00216720e-002 8.50240514e-002 1.66700363e-001
      1.62025720e-001 2.25487471e-001 1.37685627e-001 1.12884998e-001
      1.47256956e-001 8.48400295e-002 6.86131194e-002 1.51472375e-001
      1.11428268e-001 1.32051915e-001 1.89583898e-001 1.60440519e-001
      1.69475958e-001 1.22992195e-001 1.06119685e-001 6.10566027e-002
      1.01066925e-001 1.38989568e-001 2.50329345e-001 2.50329345e-001
      2.50329345e-001 1.03021279e-001 1.08480901e-001 1.09096795e-001
      5.41393533e-002 8.68413299e-002 2.01264173e-001 1.50513753e-001
      2.50329345e-001 1.62263334e-001 1.42137393e-001 1.89414293e-001
      7.92455599e-002 7.53404200e-002 1.67750120e-001 1.86355859e-001
      1.94870770e-001 2.50329345e-001 2.50329345e-001 2.50329345e-001
      2.20015675e-001 1.20604634e-001 7.07857236e-002 8.85789320e-002
      1.99244142e-001 2.45838597e-001 2.45838597e-001 2.45838597e-001
      6.70799091e-002 1.08389333e-001 9.70353410e-002 6.28221482e-002
      9.95719731e-002 2.45838597e-001 1.50942832e-001 1.56620279e-001
      1.66534364e-001 6.71135560e-002 1.41493782e-001 7.16974810e-002
      8.97166580e-002 1.35775194e-001 1.63226992e-001 1.12299070e-001
      1.31662741e-001 2.37234473e-001 2.00815439e-001 1.86378285e-001
      1.62570029e-001 1.11420900e-001 1.05399944e-001 2.45838597e-001
      2.45838597e-001 2.45838597e-001 1.27675340e-001 2.17348188e-001
      1.09872371e-001 1.33842036e-001 1.18452206e-001 1.36467323e-001</_>
    <_>
      1.41911268e-001 4.58067693e-002 1.20162860e-001 2.50856012e-001
      2.50856012e-001 1.82384104e-001 1.96928978e-001 8.66271704e-002
      9.22662243e-002 5.26696555e-002 3.58930193e-002 2.03221783e-001
      2.50856012e-001 2.50856012e-001 1.84847265e-001 1.64572865e-001
      1.47798378e-002 2.81790216e-002 8.68548825e-002 2.82173213e-002
      1.45115495e-001 2.37541169e-001 2.02955380e-001 1.93415046e-001
      1.95092008e-001 7.02509657e-002 6.92201257e-002 3.86683568e-002
      4.84726876e-002 2.10574746e-001 2.50856012e-001 2.50856012e-001
      2.50856012e-001 2.50856012e-001 2.67045759e-002 2.42090337e-002
      2.32333485e-002 1.05328783e-001 1.60962179e-001 2.22183660e-001
      2.22183660e-001 1.14588983e-001 6.32305518e-002 1.90856177e-002
      1.82655100e-002 1.65737167e-001 2.19644576e-001 2.22183660e-001
      2.22183660e-001 2.22183660e-001 7.57839233e-002 5.29254265e-002
      6.91065863e-002 4.83256355e-002 1.32218495e-001 1.41777590e-001
      1.41681209e-001 2.22183660e-001 2.22183660e-001 2.22183660e-001
      1.64306968e-001 7.72198513e-002 1.08081274e-001 2.18512997e-001
      2.22183660e-001 2.10109293e-001 1.96868062e-001 2.22183660e-001
      2.12066457e-001 1.06043197e-001 1.76169217e-001 1.92834496e-001
      2.17839032e-001 1.62735909e-001 1.88810796e-001 1.67183876e-001
      1.66152507e-001 1.52553588e-001 1.30718768e-001 1.26253232e-001
      1.20502263e-001 1.42968297e-001 6.01351224e-002 8.96479264e-002
      2.06529006e-001 2.17839032e-001 2.17839032e-001 1.70764998e-001
      2.17839032e-001 1.85984969e-001 1.91273481e-001 1.58208281e-001
      1.58461586e-001 1.10125497e-001 1.62976429e-001 2.17839032e-001
      1.10308751e-001 1.65690243e-001 1.76334560e-001 1.40152618e-001
      6.99075013e-002 1.36585429e-001 1.95573986e-001 2.17839032e-001
      2.17839032e-001 1.56409070e-001 1.47291467e-001 1.22125544e-001
      4.78962287e-002 3.73204201e-002 1.03020817e-001 1.06772028e-001
      2.10864976e-001 2.45283678e-001 2.23710805e-001 7.13444427e-002
      8.38430300e-002 2.18308419e-002 3.22890766e-002 1.18149787e-001
      1.46875829e-001 2.81156778e-001 2.81156778e-001 2.81156778e-001
      8.56969208e-002 3.61040533e-002 5.70763573e-002 1.42353117e-001
      1.31550059e-001 8.44946578e-002 2.10585743e-001 1.68704122e-001
      1.64575130e-001 7.60115907e-002 1.10804416e-001 5.36884777e-002
      1.58991084e-001 2.14637801e-001 1.76085904e-001 2.81156778e-001
      2.81156778e-001 2.81156778e-001 6.71774670e-002 9.50713009e-002
      1.12673603e-001 5.39572537e-002 4.62222062e-002 1.14631906e-001
      2.35573128e-001 2.23594993e-001 1.57468364e-001 8.13617930e-002
      9.94776636e-002 1.58222556e-001 8.28325152e-002 6.11006953e-002
      1.61525175e-001 2.31502011e-001 2.22506613e-001 1.09922372e-001
      1.47889584e-001 1.87252417e-001 1.58090740e-001 1.43261150e-001
      1.61118388e-001 1.52013063e-001 2.35573128e-001 2.35573128e-001
      1.63144782e-001 7.03945979e-002 2.35573128e-001 2.26314381e-001
      1.45457327e-001 9.26706493e-002 1.08594887e-001 1.34796903e-001
      2.35573128e-001 2.20031202e-001 1.52157843e-001 2.35573128e-001
      1.57168850e-001 6.41237199e-002 9.29152817e-002 1.51390031e-001
      2.08196700e-001 2.05370650e-001 9.66652259e-002 1.25080273e-001
      2.04521507e-001 1.51847199e-001 4.39837538e-002 1.27341926e-001
      2.03110248e-001 2.27333471e-001 1.32639304e-001 1.60196573e-001
      9.44296420e-002 1.18406042e-001 2.26799428e-001 1.48615360e-001
      1.07138373e-001 1.32848442e-001 2.27333471e-001 2.27333471e-001
      2.27333471e-001 1.57343000e-001 2.27333471e-001 1.30604208e-001
      8.88697878e-002 1.03242680e-001 1.80139422e-001 2.27333471e-001
      2.27333471e-001 2.09528506e-001 1.26825705e-001 1.38354152e-001
      1.08001597e-001 1.68190807e-001 1.37161821e-001 1.24278314e-001
      1.65159807e-001 1.18362814e-001 1.31173864e-001 8.19258168e-002
      1.89185277e-001 1.54343739e-001 2.45878458e-001 2.45878458e-001
      2.45878458e-001 2.45878458e-001 2.45878458e-001 2.45878458e-001
      6.96686506e-002 1.94675043e-001 1.08965032e-001 7.94023499e-002
      1.19674936e-001 1.44631222e-001 1.16705231e-001 8.22334588e-002
      1.62764385e-001 9.02460814e-002 1.66945502e-001 1.21392272e-001
      1.89050213e-001 2.29405537e-001 1.57843560e-001 1.56407431e-001
      1.38945043e-001 1.94673613e-001 1.54326707e-001 1.52361706e-001
      1.89662263e-001 2.32091144e-001 2.32091144e-001 1.61108062e-001
      1.56742364e-001 2.32091144e-001 1.69368461e-001 8.01834017e-002
      2.32091144e-001 2.25060001e-001 2.32091144e-001 1.84619829e-001
      6.84101954e-002 7.04100877e-002 2.32091144e-001 2.32091144e-001
      1.33599982e-001 2.32091144e-001 1.19181357e-001 1.35047242e-001
      1.48922652e-001 1.08878665e-001 9.43634957e-002 1.03990972e-001
      1.22648232e-001 1.07628405e-001 1.88528180e-001 1.31041229e-001
      1.39787778e-001 1.35517433e-001 1.60676569e-001 1.16807729e-001
      1.16651617e-001 1.46378413e-001 9.94899869e-002 2.12327197e-001
      1.28273159e-001 2.25963190e-001 1.66365013e-001 5.20430505e-002
      1.77486107e-001 2.16212735e-001 2.25963190e-001 1.62649363e-001
      2.25963190e-001 4.92536202e-002 8.45833793e-002 1.02843560e-001
      1.07144326e-001 2.25963190e-001 2.25963190e-001 2.09142908e-001
      1.62137493e-001 1.42739102e-001 7.07838982e-002 1.54293850e-001
      1.39113590e-001 1.72542617e-001 2.25963190e-001 9.95042101e-002
      1.70779675e-001 1.28826156e-001 1.48294002e-001 6.05467111e-002
      1.45434409e-001 1.27463147e-001 2.25963190e-001 2.25963190e-001
      1.46285996e-001 1.63886085e-001 1.50580615e-001 2.19296455e-001</_>
    <_>
      9.53909680e-002 7.09851384e-002 8.56057629e-002 1.43399999e-001
      2.15311199e-001 1.32022992e-001 1.56290323e-001 2.75971703e-002
      5.26902229e-002 7.16487244e-002 1.03090346e-001 2.57422209e-001
      2.57422209e-001 2.57422209e-001 1.71084121e-001 2.04953134e-001
      5.20974956e-002 3.21864784e-002 7.91426823e-002 7.89529085e-002
      1.05077349e-001 2.00331360e-001 2.36259744e-001 1.50573879e-001
      1.33129850e-001 5.67540936e-002 9.35462788e-002 1.01012148e-001
      2.57422209e-001 2.57422209e-001 2.57422209e-001 2.57422209e-001
      2.57422209e-001 2.22796321e-001 8.93505439e-002 5.51752150e-002
      6.13307878e-002 1.00660071e-001 2.24602252e-001 2.14735925e-001
      2.28263691e-001 6.19102567e-002 3.02449595e-002 3.66495848e-002
      3.99576053e-002 7.88730010e-002 8.26540291e-002 2.76434869e-001
      2.71237522e-001 1.77220494e-001 9.48314667e-002 7.02703595e-002
      9.57536250e-002 9.16972458e-002 8.77607018e-002 2.76434869e-001
      2.76434869e-001 1.89819425e-001 2.57050335e-001 1.40223131e-001
      5.64097092e-002 6.06909357e-002 7.03222379e-002 1.39093176e-001
      2.76434869e-001 2.76434869e-001 2.76434869e-001 1.41823381e-001
      8.78966078e-002 5.64294942e-002 8.78312737e-002 1.39974147e-001
      2.51246300e-002 4.21078391e-002 1.90678880e-001 2.16303661e-001
      1.85695723e-001 1.91618934e-001 1.35298952e-001 5.26322126e-002
      4.92894240e-002 1.82607193e-002 4.04578149e-002 1.18848652e-001
      1.57425210e-001 2.56025910e-001 2.56025910e-001 2.56025910e-001
      1.28934294e-001 3.34410816e-002 5.01582511e-002 1.29920349e-001
      2.56025910e-001 2.26474360e-001 1.23955071e-001 1.68468297e-001
      1.53764039e-001 3.88953388e-002 5.01447134e-002 7.14533478e-002
      1.32066324e-001 2.56025910e-001 2.56025910e-001 2.56025910e-001
      2.56025910e-001 2.56025910e-001 4.38618325e-002 4.52504568e-002
      4.69814166e-002 8.28655064e-002 8.25315118e-002 1.34630144e-001
      1.75932691e-001 1.76234439e-001 5.99680357e-002 4.03918624e-002
      2.99027283e-002 4.03357893e-002 2.55367249e-001 2.55367249e-001
      2.28216991e-001 2.55367249e-001 2.55367249e-001 2.55367249e-001
      8.55918825e-002 2.08894331e-002 4.64974344e-002 4.24681716e-002
      9.74015296e-002 1.59286082e-001 2.13891178e-001 2.55367249e-001
      6.30860999e-002 7.76022524e-002 3.66611667e-002 2.31630728e-002
      8.58126283e-002 1.87528402e-001 2.55367249e-001 2.55367249e-001
      2.55367249e-001 2.55367249e-001 2.00439841e-001 5.04417866e-002
      3.75677422e-002 2.76378334e-001 2.76229024e-001 1.49116129e-001
      1.34820759e-001 1.20717578e-001 2.30990782e-001 6.77022636e-002
      2.86062714e-002 6.37955889e-002 2.76378334e-001 2.76378334e-001
      2.07154661e-001 9.45045575e-002 6.08114265e-002 8.97500142e-002
      6.85461536e-002 6.34596273e-002 1.51055697e-002 8.65305513e-002
